{"meta": "svr", "class_weight_": [], "support_": [30, 39, 50, 71, 84, 87, 116, 119, 143, 212, 251, 253, 256, 265, 276, 297, 315, 326, 332, 338, 351, 362, 383, 407, 412, 439, 440, 459, 463, 495, 504, 509, 530, 546, 548, 564, 574, 581, 598, 599, 604, 651, 670, 755, 761, 796, 806, 832, 847, 853, 858, 860, 868, 895, 900, 917, 937, 956, 965, 983, 992, 998, 1000, 1017, 1018, 1024, 1060, 1066, 1073, 1078, 1091, 1119, 1120, 1145, 1149, 1154, 1159, 1179, 1196, 1204, 1248, 1250, 1252, 1258, 1263, 1284, 1297, 1311, 1333, 1341, 1343, 1366, 1380, 1392, 1401, 1473, 1478, 1493, 1496, 1497, 1509, 1515, 1554, 1570, 1584, 1599, 1652, 1655, 1664, 1687, 1700, 1703, 1707, 1714, 1726, 1748, 1755, 1780, 1787, 1788, 1794, 1798, 1821, 1842, 1859, 1871, 1889, 1893, 1907, 1908, 1916, 1920, 1940, 1956, 1981, 1996, 2021, 2023, 2025, 2038, 2048, 2061, 2065, 2100, 2151, 2158, 2162, 2194, 2219, 2238, 2239, 2254, 2288, 2303, 2317, 2334, 2335, 2364, 2367, 2394, 2414, 2472, 2478, 2483, 2500, 2524, 2560, 2566, 2602, 2654, 2692, 2698, 2726, 2736, 2752, 2784, 2798, 2805, 2808, 2817, 2888, 2903, 2905, 2922, 2939, 2940, 2948, 2984, 2988, 3056, 3090, 3099, 3102, 3134, 3151, 3158, 3167, 3180, 3230, 3238, 3243, 3245, 3288, 3291, 3318, 3331, 3337, 3345, 3360, 3368, 3390, 3398, 3406, 3409, 3430, 3431, 3438, 3451, 3452, 3453, 3456, 3494, 3501, 3540, 3577, 3590, 3619, 3659, 3701, 3711, 3730], "n_support_": [231], "intercept_": [0.05415151733410642], "probA_": [], "probB_": [], "_intercept_": [0.05415151733410642], "shape_fit_": [3738, 702], "_gamma": 0.001424501423905201, "params": {"C": 1.0, "cache_size": 200, "coef0": 0.0, "degree": 3, "epsilon": 0.1, "gamma": "scale", "kernel": "rbf", "max_iter": -1, "shrinking": true, "tol": 0.001, "verbose": false}, "support_vectors_": [[2.125608205795288, 2.1397838592529297, 2.137847900390625, -3.081545352935791, -1.1481101512908936, 2.0521130561828613, 2.1526315212249756, 2.1536619663238525, -3.1114630699157715, -1.1517913341522217, 2.063107490539551, 2.148111581802368, -3.068605422973633, -1.170430302619934, 2.069995641708374, 3.3157312870025635, 2.8059189319610596, -3.247462749481201, 0.22145263850688934, -0.9375338554382324, 1.908007264137268, -0.6042419672012329, 0.6050236821174622, -0.5766971707344055, 0.446077436208725, -0.19675292074680328, -0.18576562404632568, -0.6159472465515137, 0.5651969909667969, -0.34885790944099426, 0.00802652072161436, 0.20485158264636993, -0.5664718747138977, 0.5010911226272583, -0.2975001931190491, -0.267037034034729, -0.5657439231872559, 0.539393961429596, 0.12137574702501297, -0.62843918800354, 0.3916303217411041, -0.452385276556015, -0.08741768449544907, 0.11056701093912125, -0.06899327784776688, 0.0030201098416000605, 0.015214668586850166, 0.04692656546831131, -0.14709843695163727, 0.09309553354978561, 0.015262177214026451, -0.11478060483932495, 0.052933163940906525, -0.05472918599843979, -0.01224488951265812, 0.052790332585573196, -0.00185041269287467, -0.02350717782974243, 0.11524048447608948, -0.21781323850154877, -0.29735851287841797, 0.43716666102409363, -0.37362098693847656, -0.7347850203514099, 0.7394452691078186, -0.7267791628837585, 0.7031601667404175, -0.620873749256134, -0.681039035320282, -0.744120180606842, 0.7315704822540283, -0.707787275314331, 0.6187830567359924, 0.6868351697921753, -0.7188483476638794, 0.6950653195381165, -0.6093946695327759, -0.6755788922309875, -0.6724846363067627, 0.6074605584144592, 0.6505074501037598, -0.729117214679718, -0.4828289747238159, -0.6618906259536743, 2.303344249725342, -2.2942991256713867, 2.363406181335449, -2.49589204788208, -1.2561241388320923, 2.288938045501709, 2.284740686416626, -2.355942964553833, 2.496363639831543, 1.2675316333770752, -2.281278133392334, 2.414891481399536, -2.5129899978637695, -1.3637750148773193, 2.340632915496826, 2.483485698699951, 1.3944544792175293, -2.4174797534942627, 1.4735467433929443, -1.7355351448059082, 2.3106110095977783, -0.6384611129760742, 0.6391969919204712, -0.6456668376922607, 0.6489598155021667, -0.33104926347732544, -0.6306337118148804, -0.6399496793746948, 0.6465005874633789, -0.6496942043304443, 0.32501474022865295, 0.6328693628311157, -0.6544586420059204, 0.6612088680267334, -0.3591235876083374, -0.6511529684066772, -0.6818524599075317, 0.5467729568481445, 0.648776113986969, -0.6654849648475647, 0.3286735415458679, -0.6778094172477722, 2.4466967582702637, -2.4370310306549072, 2.3732876777648926, -2.081502914428711, -2.387097120285034, 2.858332872390747, 2.42728590965271, -2.3630688190460205, 2.069938898086548, 2.376465082168579, -2.8507275581359863, 2.2960314750671387, -1.9951725006103516, -2.3015761375427246, 2.799801826477051, 1.678501009941101, 1.8970544338226318, -2.547197103500366, 0.8264259696006775, -2.4590063095092773, 3.080848217010498, -0.7518344521522522, 0.7481274008750916, -0.7339385151863098, 0.7039506435394287, -0.4294917583465576, -0.6791305541992188, -0.7444435954093933, 0.7303640246391296, -0.7008729577064514, 0.4380110502243042, 0.6749612092971802, -0.7167674899101257, 0.6892055869102478, -0.46689558029174805, -0.6593948006629944, -0.6693483591079712, 0.5774473547935486, 0.6087436676025391, -0.7196873426437378, 0.13066519796848297, -0.7358353734016418, 2.843127489089966, -2.8365845680236816, 2.8077313899993896, -2.4416863918304443, -1.7844055891036987, 2.999931573867798, 2.8269550800323486, -2.7874865531921387, 2.3816282749176025, 1.7815488576889038, -3.0374393463134766, 2.7108261585235596, -2.1623456478118896, -1.615539789199829, 3.04529070854187, 1.2148030996322632, 0.7607775330543518, -1.8777308464050293, -0.038999296724796295, -0.2554033696651459, 0.9997987151145935, -1.57220458984375, -1.5634945631027222, -1.5786635875701904, 1.233414649963379, 1.2625809907913208, -1.5446134805679321, -1.565005898475647, -1.5541094541549683, -1.5744447708129883, 1.2405248880386353, 1.2624845504760742, -1.5379564762115479, -1.5793805122375488, -1.5732616186141968, -1.5823848247528076, 1.2247323989868164, 1.2636131048202515, -1.5522985458374023, 0.9406112432479858, 0.9408825039863586, 0.9384836554527283, -0.785629153251648, -0.8648371696472168, 0.957743763923645, 1.3186728954315186, 1.3234115839004517, 1.3137545585632324, -1.226985216140747, -1.0026073455810547, 1.2417221069335938, -1.5389405488967896, -1.534044623374939, -1.5431859493255615, 1.296082615852356, 1.1852020025253296, -1.4781321287155151, 0.6042419672012329, -0.6050236821174622, 0.5766971707344055, -0.446077436208725, 0.19675292074680328, 0.18576562404632568, -0.6050236821174622, 0.6159472465515137, -0.5651969909667969, 0.34885790944099426, -0.00802652072161436, -0.20485158264636993, 0.5766971707344055, -0.5651969909667969, 0.5664718747138977, -0.5010911226272583, 0.2975001931190491, 0.267037034034729, -0.446077436208725, 0.34885790944099426, -0.5010911226272583, 0.5657439231872559, -0.539393961429596, -0.12137574702501297, 0.19675292074680328, -0.00802652072161436, 0.2975001931190491, -0.539393961429596, 0.62843918800354, -0.3916303217411041, 0.18576562404632568, -0.20485158264636993, 0.267037034034729, -0.12137574702501297, -0.3916303217411041, 0.452385276556015, -0.048262644559144974, -0.008223661221563816, -0.03398600593209267, 0.14139677584171295, -0.25067612528800964, 0.254544734954834, 0.037492718547582626, -0.008973529562354088, 0.018220363184809685, -0.07171875238418579, 0.16794472932815552, -0.20651035010814667, -0.04847889021039009, -0.01077927928417921, -0.032640136778354645, 0.14557932317256927, -0.26245003938674927, 0.2713641822338104, 0.06652725487947464, 0.05319247022271156, 0.06291453540325165, -0.25523731112480164, 0.36385247111320496, -0.3384372889995575, -0.07695340365171432, -0.07598813623189926, -0.09474346041679382, 0.30378299951553345, -0.35230180621147156, 0.24374563992023468, 0.03537348657846451, 0.021346278488636017, 0.06830676645040512, -0.1844746619462967, 0.1358068287372589, 0.030931826680898666, 0.7347850203514099, -0.7394452691078186, 0.7267791628837585, -0.7031601667404175, 0.620873749256134, 0.681039035320282, -0.7394452691078186, 0.744120180606842, -0.7315704822540283, 0.707787275314331, -0.6187830567359924, -0.6868351697921753, 0.7267791628837585, -0.7315704822540283, 0.7188483476638794, -0.6950653195381165, 0.6093946695327759, 0.6755788922309875, -0.7031601667404175, 0.707787275314331, -0.6950653195381165, 0.6724846363067627, -0.6074605584144592, -0.6505074501037598, 0.620873749256134, -0.6187830567359924, 0.6093946695327759, -0.6074605584144592, 0.729117214679718, 0.4828289747238159, 0.681039035320282, -0.6868351697921753, 0.6755788922309875, -0.6505074501037598, 0.4828289747238159, 0.6618906259536743, -0.6144542694091797, 0.6113898754119873, -0.6355370283126831, 0.680465817451477, 0.10471909493207932, -0.6468662619590759, 0.6112034320831299, -0.6080610752105713, 0.6323471665382385, -0.6783902645111084, -0.11026540398597717, 0.6427090167999268, -0.6350033283233643, 0.6319476962089539, -0.6560971736907959, 0.6977624297142029, 0.10372406244277954, -0.6680675745010376, 0.6791070103645325, -0.6771102547645569, 0.6968262791633606, -0.719843864440918, -0.04093974828720093, 0.7093607783317566, 0.055191002786159515, -0.05996015667915344, 0.060829244554042816, -0.022107789292931557, -0.27149394154548645, 0.18365435302257538, -0.6150633692741394, 0.6110655069351196, -0.6378018856048584, 0.6813754439353943, 0.20000559091567993, -0.6501768231391907, 0.6384611129760742, -0.6391969919204712, 0.6456668376922607, -0.6489598155021667, 0.33104926347732544, 0.6306337118148804, -0.6391969919204712, 0.6399496793746948, -0.6465005874633789, 0.6496942043304443, -0.32501474022865295, -0.6328693628311157, 0.6456668376922607, -0.6465005874633789, 0.6544586420059204, -0.6612088680267334, 0.3591235876083374, 0.6511529684066772, -0.6489598155021667, 0.6496942043304443, -0.6612088680267334, 0.6818524599075317, -0.5467729568481445, -0.648776113986969, 0.33104926347732544, -0.32501474022865295, 0.3591235876083374, -0.5467729568481445, 0.6654849648475647, -0.3286735415458679, 0.6306337118148804, -0.6328693628311157, 0.6511529684066772, -0.648776113986969, -0.3286735415458679, 0.6778094172477722, -0.7160568833351135, 0.7148484587669373, -0.7076755166053772, 0.6858420968055725, -0.5077348947525024, -0.6944605112075806, 0.714962899684906, -0.7137664556503296, 0.7066638469696045, -0.6850423216819763, 0.5084729790687561, 0.6934191584587097, -0.7083236575126648, 0.7071989178657532, -0.7005161046981812, 0.680148720741272, -0.5124217867851257, -0.6866042613983154, 0.6866714954376221, -0.6857782006263733, 0.6804381608963013, -0.6640525460243225, 0.5196983218193054, 0.6560741662979126, -0.4932742118835449, 0.49407872557640076, -0.49854767322540283, 0.5088323950767517, -0.4045564532279968, -0.27957451343536377, -0.7011684775352478, 0.6998843550682068, -0.6919032335281372, 0.6609488129615784, -0.31460514664649963, -0.7040385603904724, 0.7518344521522522, -0.7481274008750916, 0.7339385151863098, -0.7039506435394287, 0.4294917583465576, 0.6791305541992188, -0.7481274008750916, 0.7444435954093933, -0.7303640246391296, 0.7008729577064514, -0.4380110502243042, -0.6749612092971802, 0.7339385151863098, -0.7303640246391296, 0.7167674899101257, -0.6892055869102478, 0.46689558029174805, 0.6593948006629944, -0.7039506435394287, 0.7008729577064514, -0.6892055869102478, 0.6693483591079712, -0.5774473547935486, -0.6087436676025391, 0.4294917583465576, -0.4380110502243042, 0.46689558029174805, -0.5774473547935486, 0.7196873426437378, -0.13066519796848297, 0.6791305541992188, -0.6749612092971802, 0.6593948006629944, -0.6087436676025391, -0.13066519796848297, 0.7358353734016418, -0.5222265720367432, 0.5265371799468994, -0.5397648811340332, 0.5419801473617554, -0.054503243416547775, -0.4296002984046936, 0.5245331525802612, -0.5290428400039673, 0.5429598689079285, -0.5481908321380615, 0.07821379601955414, 0.42659991979599, -0.5311819911003113, 0.5364169478416443, -0.5527148246765137, 0.5666475892066956, -0.15400493144989014, -0.406919002532959, 0.5003301501274109, -0.5096266865730286, 0.5375754237174988, -0.5787508487701416, 0.3431088626384735, 0.11893641203641891, 0.12510079145431519, -0.10297199338674545, 0.021484071388840675, 0.2606513202190399, -0.40999579429626465, 0.43226921558380127, -0.5395337343215942, 0.5406138300895691, -0.5337664484977722, 0.25910621881484985, 0.41061970591545105, -0.5834867358207703, -1.3023773431777954, -1.3108158111572266, -1.2916356325149536, 1.119978904724121, 1.1122932434082031, -1.2739111185073853, -1.3172242641448975, -1.302314043045044, 1.1306507587432861, 1.1272598505020142, -1.2855459451675415, -1.2783946990966797, 1.1034727096557617, 1.0968741178512573, -1.2606298923492432, -0.8413251638412476, -1.1422237157821655, 1.1592843532562256, -0.8911550045013428, 1.047349214553833, -1.223631739616394, -0.6042419672012329, 0.6050236821174622, -0.5766971707344055, 0.446077436208725, -0.19675292074680328, -0.18576562404632568, -0.6159472465515137, 0.5651969909667969, -0.34885790944099426, 0.00802652072161436, 0.20485158264636993, -0.5664718747138977, 0.5010911226272583, -0.2975001931190491, -0.267037034034729, -0.5657439231872559, 0.539393961429596, 0.12137574702501297, -0.62843918800354, 0.3916303217411041, -0.452385276556015, -0.600203812122345, 0.5886714458465576, -0.5981659889221191, 0.5863648653030396, -0.41334056854248047, -0.17375952005386353, -0.5968490242958069, 0.5865179300308228, -0.5182348489761353, 0.19940418004989624, 0.3310168385505676, -0.6006718277931213, 0.5908199548721313, -0.3806993067264557, -0.24086213111877441, -0.6529021263122559, 0.5713505148887634, -0.18817345798015594, -0.5860670804977417, 0.4952593147754669, -0.5459555387496948, -0.7347850203514099, 0.7394452691078186, -0.7267791628837585, 0.7031601667404175, -0.620873749256134, -0.681039035320282, -0.744120180606842, 0.7315704822540283, -0.707787275314331, 0.6187830567359924, 0.6868351697921753, -0.7188483476638794, 0.6950653195381165, -0.6093946695327759, -0.6755788922309875, -0.6724846363067627, 0.6074605584144592, 0.6505074501037598, -0.729117214679718, -0.4828289747238159, -0.6618906259536743, -0.6887431740760803, 0.6846036314964294, -0.7073481678962708, 0.7728850245475769, 0.1269308477640152, -0.6851109266281128, -0.6804593801498413, 0.7030802369117737, -0.7688256502151489, -0.13605433702468872, 0.6806716322898865, -0.7272943258285522, 0.7949658632278442, 0.13359802961349487, -0.7103917002677917, -0.8577059507369995, -0.04845993593335152, 0.7901598811149597, -0.5866938233375549, 0.3697875440120697, -0.7324702739715576, -0.6384611129760742, 0.6391969919204712, -0.6456668376922607, 0.6489598155021667, -0.33104926347732544, -0.6306337118148804, -0.6399496793746948, 0.6465005874633789, -0.6496942043304443, 0.32501474022865295, 0.6328693628311157, -0.6544586420059204, 0.6612088680267334, -0.3591235876083374, -0.6511529684066772, -0.6818524599075317, 0.5467729568481445, 0.648776113986969, -0.6654849648475647, 0.3286735415458679, -0.6778094172477722, -0.8595628142356873, 0.8586933016777039, -0.8533557653427124, 0.8353866338729858, -0.5212981700897217, -0.8009105920791626, -0.8578260540962219, 0.8525146842002869, -0.8347564339637756, 0.5240166783332825, 0.7989602088928223, -0.8474303483963013, 0.831132709980011, -0.5394808053970337, -0.7848390936851501, -0.821311891078949, 0.5607768893241882, 0.6971314549446106, -0.39539265632629395, 0.10429535061120987, -0.8239993453025818, -0.7518344521522522, 0.7481274008750916, -0.7339385151863098, 0.7039506435394287, -0.4294917583465576, -0.6791305541992188, -0.7444435954093933, 0.7303640246391296, -0.7008729577064514, 0.4380110502243042, 0.6749612092971802, -0.7167674899101257, 0.6892055869102478, -0.46689558029174805, -0.6593948006629944, -0.6693483591079712, 0.5774473547935486, 0.6087436676025391, -0.7196873426437378, 0.13066519796848297, -0.7358353734016418, -0.7857741713523865, 0.7889840006828308, -0.7974469661712646, 0.7516629099845886, 0.02214493602514267, -0.5688111186027527, -0.7919923067092896, 0.7999240159988403, -0.7554090619087219, 0.008034181781113148, 0.5669268369674683, -0.8065232038497925, 0.7657498717308044, -0.11268708854913712, -0.5474911332130432, -0.7435193657875061, 0.41414278745651245, 0.11399272084236145, -0.5152825713157654, 0.5115343928337097, -0.6351523995399475], [-0.2953488528728485, -0.2683602571487427, -0.32637661695480347, 0.5861192345619202, -0.12581193447113037, -0.147178515791893, -0.23946647346019745, -0.3016335368156433, 0.5887789726257324, -0.1796356737613678, -0.10883557796478271, -0.35477393865585327, 0.5826195478439331, -0.06542307883501053, -0.19131843745708466, -0.5000140070915222, -0.6178218722343445, 0.6130977869033813, 0.5590236783027649, -0.35650891065597534, 0.054840318858623505, 0.73643559217453, -0.31715819239616394, 1.2256896495819092, -2.416957139968872, 2.2847859859466553, 0.7390656471252441, -0.0016341772861778736, -0.7275468707084656, 1.8701469898223877, -1.7026528120040894, -0.4375091791152954, 1.7041257619857788, -2.764596462249756, 2.8152239322662354, 0.891699492931366, 3.124742269515991, -2.6025660037994385, -1.55426824092865, 1.1386483907699585, 1.1495683193206787, -0.208688884973526, -0.6301079392433167, 0.626981794834137, -0.6379165053367615, 0.621555507183075, -0.3983153998851776, -0.28987839818000793, -0.6244828701019287, 0.6345470547676086, -0.615415096282959, 0.3353157639503479, 0.37294086813926697, -0.6473165154457092, 0.6324076056480408, -0.3798748254776001, -0.3490488529205322, -0.6191739439964294, 0.4517717659473419, 0.1167692244052887, -0.46283793449401855, 0.3634816110134125, -0.5113985538482666, 5.369703769683838, -5.331079006195068, 5.322543621063232, -5.403502941131592, 6.466653823852539, 4.681737899780273, 5.290899276733398, -5.2864179611206055, 5.373859405517578, -6.4289751052856445, -4.656231880187988, 5.267614841461182, -5.3360419273376465, 6.441366672515869, 4.594178199768066, 5.377240180969238, -6.530342102050781, -4.610395908355713, 7.118546009063721, 5.7907609939575195, 3.8179938793182373, 0.7688046097755432, -0.7322524785995483, 0.8851633071899414, -1.4358582496643066, 0.7750341892242432, 0.7272154092788696, 0.6963173747062683, -0.845215380191803, 1.3881226778030396, -0.7494385838508606, -0.6845544576644897, 1.0093611478805542, -1.5962786674499512, 0.8394120931625366, 0.829057514667511, 2.256840467453003, -1.2666975259780884, -1.4378559589385986, -0.10523630678653717, 0.6288602352142334, 0.5431312918663025, 0.7748599648475647, -0.7781174778938293, 0.8415877819061279, -0.98341304063797, 0.7360668778419495, 0.9750047922134399, 0.7814947366714478, -0.8453426957130432, 0.9863340258598328, -0.7145100235939026, -0.9929494857788086, 0.9218400120735168, -1.0957609415054321, 0.9038167595863342, 1.0746896266937256, 1.3802748918533325, -1.8217514753341675, -0.9899560213088989, 2.806260347366333, -1.6985480785369873, 2.1246144771575928, 0.8652504086494446, -0.8781414031982422, 0.9592679142951965, -1.2673439979553223, 2.372169017791748, 0.42861855030059814, 0.8911146521568298, -0.9727187752723694, 1.2819384336471558, -2.385040521621704, -0.4392760992050171, 1.0570565462112427, -1.3722070455551147, 2.4577839374542236, 0.5076642036437988, 1.6893583536148071, -2.5812835693359375, -0.7935011386871338, 0.8910747170448303, 1.7283583879470825, 0.02478315308690071, 5.801784992218018, -5.803463459014893, 5.807155609130859, -5.77277135848999, 3.457693576812744, 5.951171875, 5.804380893707275, -5.805397987365723, 5.765562057495117, -3.4666950702667236, -5.953104019165039, 5.797035217285156, -5.738356590270996, 3.492522716522217, 5.955793857574463, 5.63950777053833, -3.4117209911346436, -5.927011013031006, 0.8483173251152039, 2.6188979148864746, 5.822922229766846, 1.1537511348724365, -1.2233439683914185, 1.4651777744293213, -2.1748275756835938, 1.2208373546600342, 0.7087579965591431, 1.2939350605010986, -1.538121223449707, 2.2280313968658447, -1.2156018018722534, -0.7882471680641174, 1.7855311632156372, -2.372225761413574, 1.0936492681503296, 1.039108395576477, 2.1990818977355957, -0.4740815758705139, -1.155403733253479, -0.06994713097810745, 0.3126266300678253, 0.21298110485076904, 1.2967594861984253, 1.331298589706421, 1.2112550735473633, 0.9438687562942505, -2.430468797683716, 1.6657606363296509, 1.3943945169448853, 1.4266010522842407, 1.310346007347107, 0.9372800588607788, -2.5604746341705322, 1.7738158702850342, 1.1676007509231567, 1.2042697668075562, 1.08151113986969, 0.9522369503974915, -2.264608144760132, 1.5241031646728516, 0.7684639096260071, 0.7661288976669312, 0.7724133729934692, -0.7691903710365295, -0.568449854850769, 0.7497702836990356, -1.9192657470703125, -1.9832830429077148, -1.803707480430603, -0.8026425838470459, 2.555752992630005, -2.1396172046661377, 1.6616517305374146, 1.705684781074524, 1.5638277530670166, 0.9361193776130676, -2.615060329437256, 1.9905014038085938, -0.73643559217453, 0.31715819239616394, -1.2256896495819092, 2.416957139968872, -2.2847859859466553, -0.7390656471252441, 0.31715819239616394, 0.0016341772861778736, 0.7275468707084656, -1.8701469898223877, 1.7026528120040894, 0.4375091791152954, -1.2256896495819092, 0.7275468707084656, -1.7041257619857788, 2.764596462249756, -2.8152239322662354, -0.891699492931366, 2.416957139968872, -1.8701469898223877, 2.764596462249756, -3.124742269515991, 2.6025660037994385, 1.55426824092865, -2.2847859859466553, 1.7026528120040894, -2.8152239322662354, 2.6025660037994385, -1.1386483907699585, -1.1495683193206787, -0.7390656471252441, 0.4375091791152954, -0.891699492931366, 1.55426824092865, -1.1495683193206787, 0.208688884973526, 0.1330885887145996, -0.2507231533527374, 0.13665640354156494, 0.12468019127845764, -0.35869863629341125, 0.39865735173225403, -0.1419299691915512, 0.24946783483028412, -0.149074986577034, -0.10700639337301254, 0.36746013164520264, -0.4128279983997345, 0.07527263462543488, -0.18195313215255737, 0.08236394822597504, 0.14704561233520508, -0.35326340794563293, 0.3802248537540436, -0.0199132077395916, 0.13032831251621246, -0.019926533102989197, -0.1733320653438568, 0.28598642349243164, -0.280832976102829, 0.21525226533412933, -0.34567904472351074, 0.19092248380184174, 0.0571703277528286, -0.1526593714952469, 0.12724517285823822, -0.4984693229198456, 0.5320732593536377, -0.46010032296180725, 0.2584560811519623, -0.11967738717794418, 0.05761595815420151, -5.369703769683838, 5.331079006195068, -5.322543621063232, 5.403502941131592, -6.466653823852539, -4.681737899780273, 5.331079006195068, -5.290899276733398, 5.2864179611206055, -5.373859405517578, 6.4289751052856445, 4.656231880187988, -5.322543621063232, 5.2864179611206055, -5.267614841461182, 5.3360419273376465, -6.441366672515869, -4.594178199768066, 5.403502941131592, -5.373859405517578, 5.3360419273376465, -5.377240180969238, 6.530342102050781, 4.610395908355713, -6.466653823852539, 6.4289751052856445, -6.441366672515869, 6.530342102050781, -7.118546009063721, -5.7907609939575195, -4.681737899780273, 4.656231880187988, -4.594178199768066, 4.610395908355713, -5.7907609939575195, -3.8179938793182373, 2.259958028793335, -2.2140495777130127, 2.4270143508911133, -3.0479326248168945, 1.4824200868606567, 2.2531118392944336, -2.229607343673706, 2.1846604347229004, -2.393751859664917, 3.0054538249969482, -1.383885145187378, -2.2273964881896973, 2.4366579055786133, -2.387594223022461, 2.6103761196136475, -3.2432444095611572, 1.6713910102844238, 2.4082982540130615, -2.926664113998413, 2.8681480884552, -3.1152069568634033, 3.77754807472229, -2.964205503463745, -2.776953935623169, 0.3905932605266571, -0.3215082883834839, 0.5067135691642761, -1.3893611431121826, 2.703868865966797, -0.39595645666122437, 2.57610821723938, -2.534554958343506, 2.715315580368042, -3.178122043609619, 0.45568665862083435, 2.5555567741394043, -0.7748599648475647, 0.7781174778938293, -0.8415877819061279, 0.98341304063797, -0.7360668778419495, -0.9750047922134399, 0.7781174778938293, -0.7814947366714478, 0.8453426957130432, -0.9863340258598328, 0.7145100235939026, 0.9929494857788086, -0.8415877819061279, 0.8453426957130432, -0.9218400120735168, 1.0957609415054321, -0.9038167595863342, -1.0746896266937256, 0.98341304063797, -0.9863340258598328, 1.0957609415054321, -1.3802748918533325, 1.8217514753341675, 0.9899560213088989, -0.7360668778419495, 0.7145100235939026, -0.9038167595863342, 1.8217514753341675, -2.806260347366333, 1.6985480785369873, -0.9750047922134399, 0.9929494857788086, -1.0746896266937256, 0.9899560213088989, 1.6985480785369873, -2.1246144771575928, 2.6768839359283447, -2.6776556968688965, 2.6866700649261475, -2.7667393684387207, 3.2741620540618896, 1.8592000007629395, -2.6811764240264893, 2.681978225708008, -2.6911723613739014, 2.771867275238037, -3.2845120429992676, -1.861465573310852, 2.707829475402832, -2.7087812423706055, 2.7188565731048584, -2.802432060241699, 3.3367929458618164, 1.8779667615890503, -2.8025283813476562, 2.80364990234375, -2.8144893646240234, 2.8977222442626953, -3.3799641132354736, -1.9581996202468872, 3.0534512996673584, -3.054980754852295, 3.062934398651123, -3.0612056255340576, 2.174879312515259, 1.9902194738388062, 2.1870956420898438, -2.190542459487915, 2.2154340744018555, -2.345447540283203, 2.7820823192596436, 1.2395092248916626, -5.801784992218018, 5.803463459014893, -5.807155609130859, 5.77277135848999, -3.457693576812744, -5.951171875, 5.803463459014893, -5.804380893707275, 5.805397987365723, -5.765562057495117, 3.4666950702667236, 5.953104019165039, -5.807155609130859, 5.805397987365723, -5.797035217285156, 5.738356590270996, -3.492522716522217, -5.955793857574463, 5.77277135848999, -5.765562057495117, 5.738356590270996, -5.63950777053833, 3.4117209911346436, 5.927011013031006, -3.457693576812744, 3.4666950702667236, -3.492522716522217, 3.4117209911346436, -0.8483173251152039, -2.6188979148864746, -5.951171875, 5.953104019165039, -5.955793857574463, 5.927011013031006, -2.6188979148864746, -5.822922229766846, 2.114607572555542, -2.240151882171631, 2.653143882751465, -3.7085843086242676, 3.237182378768921, 0.6508464217185974, -2.173079490661621, 2.301578998565674, -2.7233564853668213, 3.7934019565582275, -3.404308795928955, -0.6652572751045227, 2.364053726196289, -2.5019991397857666, 2.9512827396392822, -4.056995868682861, 3.832780361175537, 0.7050022482872009, -2.803495407104492, 2.9630465507507324, -3.4649434089660645, 4.469063758850098, -3.522810935974121, -0.2992311716079712, 1.3835753202438354, -1.5439475774765015, 2.0459182262420654, -2.535661458969116, 1.4747682809829712, -0.8610153198242188, 1.207054615020752, -1.286111831665039, 1.5474731922149658, -1.5841156244277954, -0.39961448311805725, 1.2879631519317627, -0.3576827049255371, -0.33574479818344116, -0.3921675980091095, 0.9928745031356812, 0.030357996001839638, -0.2592902183532715, -0.3130204975605011, -0.37160664796829224, 0.998941957950592, -0.0014936277875676751, -0.2344793677330017, -0.4244474172592163, 0.9836545586585999, 0.07570665329694748, -0.2975086569786072, -0.8287069797515869, -0.9484775066375732, 1.0106855630874634, 0.17057813704013824, -0.041867174208164215, -0.16196754574775696, 0.73643559217453, -0.31715819239616394, 1.2256896495819092, -2.416957139968872, 2.2847859859466553, 0.7390656471252441, -0.0016341772861778736, -0.7275468707084656, 1.8701469898223877, -1.7026528120040894, -0.4375091791152954, 1.7041257619857788, -2.764596462249756, 2.8152239322662354, 0.891699492931366, 3.124742269515991, -2.6025660037994385, -1.55426824092865, 1.1386483907699585, 1.1495683193206787, -0.208688884973526, -0.29459476470947266, 0.28632229566574097, -0.300017774105072, 0.3062168061733246, -0.1854541003704071, -0.18597771227359772, -0.2917429208755493, 0.29377084970474243, -0.2625725269317627, 0.04611990973353386, 0.2794472575187683, -0.31031548976898193, 0.3127189874649048, -0.1505594253540039, -0.2555650770664215, -0.3649401366710663, 0.30607694387435913, -0.035802971571683884, -0.35878077149391174, 0.34074798226356506, -0.4451068043708801, 5.369703769683838, -5.331079006195068, 5.322543621063232, -5.403502941131592, 6.466653823852539, 4.681737899780273, 5.290899276733398, -5.2864179611206055, 5.373859405517578, -6.4289751052856445, -4.656231880187988, 5.267614841461182, -5.3360419273376465, 6.441366672515869, 4.594178199768066, 5.377240180969238, -6.530342102050781, -4.610395908355713, 7.118546009063721, 5.7907609939575195, 3.8179938793182373, 0.08133604377508163, -0.07858441025018692, 0.10401143878698349, -0.1730390191078186, 0.023882297798991203, 0.1958351880311966, 0.07626143097877502, -0.10021238029003143, 0.16339457035064697, 0.0032755222637206316, -0.19562070071697235, 0.13066166639328003, -0.2162107229232788, 0.07070444524288177, 0.22075051069259644, 0.3783777952194214, -0.4518773555755615, -0.26837480068206787, 1.2512869834899902, -0.2881852090358734, 0.366364985704422, 0.7748599648475647, -0.7781174778938293, 0.8415877819061279, -0.98341304063797, 0.7360668778419495, 0.9750047922134399, 0.7814947366714478, -0.8453426957130432, 0.9863340258598328, -0.7145100235939026, -0.9929494857788086, 0.9218400120735168, -1.0957609415054321, 0.9038167595863342, 1.0746896266937256, 1.3802748918533325, -1.8217514753341675, -0.9899560213088989, 2.806260347366333, -1.6985480785369873, 2.1246144771575928, 0.41249334812164307, -0.41650259494781494, 0.44208458065986633, -0.5414848327636719, 1.1184298992156982, 0.11035202443599701, 0.42052051424980164, -0.44615310430526733, 0.5456928014755249, -1.1214594841003418, -0.11309625208377838, 0.4720594584941864, -0.5720465183258057, 1.1288098096847534, 0.13282811641693115, 0.6671505570411682, -0.9927638173103333, -0.23398788273334503, 0.22875191271305084, 0.557456910610199, -0.27359241247177124, 5.801784992218018, -5.803463459014893, 5.807155609130859, -5.77277135848999, 3.457693576812744, 5.951171875, 5.804380893707275, -5.805397987365723, 5.765562057495117, -3.4666950702667236, -5.953104019165039, 5.797035217285156, -5.738356590270996, 3.492522716522217, 5.955793857574463, 5.63950777053833, -3.4117209911346436, -5.927011013031006, 0.8483173251152039, 2.6188979148864746, 5.822922229766846, -0.16030941903591156, 0.14080585539340973, -0.07381945103406906, -0.1484687179327011, 0.510653018951416, -0.35340988636016846, -0.119460828602314, 0.04667836055159569, 0.1878836750984192, -0.5578144788742065, 0.3685992658138275, 0.04402142018079758, -0.31297725439071655, 0.7049823999404907, -0.4171428978443146, 0.5995631217956543, -0.7903788685798645, 0.4419166147708893, 0.353769451379776, -0.10514651983976364, 0.015673700720071793], [-0.8375688791275024, -0.8450472354888916, -0.828827440738678, 0.6185880303382874, 0.8734319806098938, -0.8880348205566406, -0.852503776550293, -0.8363130688667297, 0.6233828067779541, 0.8816013932228088, -0.896154522895813, -0.8200576901435852, 0.6125171184539795, 0.8664620518684387, -0.8791180849075317, -0.501620352268219, -0.700948178768158, 0.6603177189826965, -0.7855001091957092, 0.8819689750671387, -0.9298588633537292, -0.6042419672012329, 0.6050236821174622, -0.5766971707344055, 0.446077436208725, -0.19675292074680328, -0.18576562404632568, -0.6159472465515137, 0.5651969909667969, -0.34885790944099426, 0.00802652072161436, 0.20485158264636993, -0.5664718747138977, 0.5010911226272583, -0.2975001931190491, -0.267037034034729, -0.5657439231872559, 0.539393961429596, 0.12137574702501297, -0.62843918800354, 0.3916303217411041, -0.452385276556015, -0.6591328978538513, 0.6633464694023132, -0.6599334478378296, 0.6219892501831055, -0.39916011691093445, -0.2597857117652893, -0.6702160239219666, 0.6621098518371582, -0.6130989193916321, 0.32683950662612915, 0.34723782539367676, -0.6641645431518555, 0.6328315734863281, -0.37862348556518555, -0.33138781785964966, -0.6249064207077026, 0.46470504999160767, 0.09953391551971436, -0.493211954832077, 0.41102227568626404, -0.5722798705101013, -0.7347850203514099, 0.7394452691078186, -0.7267791628837585, 0.7031601667404175, -0.620873749256134, -0.681039035320282, -0.744120180606842, 0.7315704822540283, -0.707787275314331, 0.6187830567359924, 0.6868351697921753, -0.7188483476638794, 0.6950653195381165, -0.6093946695327759, -0.6755788922309875, -0.6724846363067627, 0.6074605584144592, 0.6505074501037598, -0.729117214679718, -0.4828289747238159, -0.6618906259536743, -0.8174743056297302, 0.8111190795898438, -0.8273917436599731, 0.8863264322280884, 0.2806819677352905, -0.7134586572647095, -0.8047071099281311, 0.8210793137550354, -0.8807775378227234, -0.28988033533096313, 0.708191454410553, -0.8368803858757019, 0.893466591835022, 0.29285454750061035, -0.7268626093864441, -0.9372435212135315, -0.18886853754520416, 0.7772286534309387, -0.48371100425720215, 0.44697362184524536, -0.6817716360092163, -0.6384611129760742, 0.6391969919204712, -0.6456668376922607, 0.6489598155021667, -0.33104926347732544, -0.6306337118148804, -0.6399496793746948, 0.6465005874633789, -0.6496942043304443, 0.32501474022865295, 0.6328693628311157, -0.6544586420059204, 0.6612088680267334, -0.3591235876083374, -0.6511529684066772, -0.6818524599075317, 0.5467729568481445, 0.648776113986969, -0.6654849648475647, 0.3286735415458679, -0.6778094172477722, -0.6826167106628418, 0.683334469795227, -0.6877086162567139, 0.7008589506149292, -0.1376931220293045, -0.6258652806282043, -0.6840577721595764, 0.6884587407112122, -0.7016283273696899, 0.14274366199970245, 0.6264147758483887, -0.6929876804351807, 0.7062270641326904, -0.17608027160167694, -0.6290268301963806, -0.7197015285491943, 0.3224894404411316, 0.622756838798523, -0.6565293669700623, 0.3021978735923767, -0.6602065563201904, -0.7518344521522522, 0.7481274008750916, -0.7339385151863098, 0.7039506435394287, -0.4294917583465576, -0.6791305541992188, -0.7444435954093933, 0.7303640246391296, -0.7008729577064514, 0.4380110502243042, 0.6749612092971802, -0.7167674899101257, 0.6892055869102478, -0.46689558029174805, -0.6593948006629944, -0.6693483591079712, 0.5774473547935486, 0.6087436676025391, -0.7196873426437378, 0.13066519796848297, -0.7358353734016418, -0.9373942017555237, 0.9424052834510803, -0.9578093886375427, 0.959338903427124, 0.15039385855197906, -0.7235978841781616, -0.9475338459014893, 0.9632253646850586, -0.9642424583435059, -0.10483556240797043, 0.7111660242080688, -0.9789791703224182, 0.9673441052436829, -0.04169992730021477, -0.6399095058441162, -0.8417022824287415, 0.30606770515441895, 0.13552407920360565, -0.43101033568382263, 0.473699152469635, -0.6627430319786072, -1.57220458984375, -1.5634945631027222, -1.5786635875701904, 1.233414649963379, 1.2625809907913208, -1.5446134805679321, -1.565005898475647, -1.5541094541549683, -1.5744447708129883, 1.2405248880386353, 1.2624845504760742, -1.5379564762115479, -1.5793805122375488, -1.5732616186141968, -1.5823848247528076, 1.2247323989868164, 1.2636131048202515, -1.5522985458374023, 0.9406112432479858, 0.9408825039863586, 0.9384836554527283, -0.785629153251648, -0.8648371696472168, 0.957743763923645, 1.3186728954315186, 1.3234115839004517, 1.3137545585632324, -1.226985216140747, -1.0026073455810547, 1.2417221069335938, -1.5389405488967896, -1.534044623374939, -1.5431859493255615, 1.296082615852356, 1.1852020025253296, -1.4781321287155151, 0.6042419672012329, -0.6050236821174622, 0.5766971707344055, -0.446077436208725, 0.19675292074680328, 0.18576562404632568, -0.6050236821174622, 0.6159472465515137, -0.5651969909667969, 0.34885790944099426, -0.00802652072161436, -0.20485158264636993, 0.5766971707344055, -0.5651969909667969, 0.5664718747138977, -0.5010911226272583, 0.2975001931190491, 0.267037034034729, -0.446077436208725, 0.34885790944099426, -0.5010911226272583, 0.5657439231872559, -0.539393961429596, -0.12137574702501297, 0.19675292074680328, -0.00802652072161436, 0.2975001931190491, -0.539393961429596, 0.62843918800354, -0.3916303217411041, 0.18576562404632568, -0.20485158264636993, 0.267037034034729, -0.12137574702501297, -0.3916303217411041, 0.452385276556015, -0.048262644559144974, -0.008223661221563816, -0.03398600593209267, 0.14139677584171295, -0.25067612528800964, 0.254544734954834, 0.037492718547582626, -0.008973529562354088, 0.018220363184809685, -0.07171875238418579, 0.16794472932815552, -0.20651035010814667, -0.04847889021039009, -0.01077927928417921, -0.032640136778354645, 0.14557932317256927, -0.26245003938674927, 0.2713641822338104, 0.06652725487947464, 0.05319247022271156, 0.06291453540325165, -0.25523731112480164, 0.36385247111320496, -0.3384372889995575, -0.07695340365171432, -0.07598813623189926, -0.09474346041679382, 0.30378299951553345, -0.35230180621147156, 0.24374563992023468, 0.03537348657846451, 0.021346278488636017, 0.06830676645040512, -0.1844746619462967, 0.1358068287372589, 0.030931826680898666, 0.7347850203514099, -0.7394452691078186, 0.7267791628837585, -0.7031601667404175, 0.620873749256134, 0.681039035320282, -0.7394452691078186, 0.744120180606842, -0.7315704822540283, 0.707787275314331, -0.6187830567359924, -0.6868351697921753, 0.7267791628837585, -0.7315704822540283, 0.7188483476638794, -0.6950653195381165, 0.6093946695327759, 0.6755788922309875, -0.7031601667404175, 0.707787275314331, -0.6950653195381165, 0.6724846363067627, -0.6074605584144592, -0.6505074501037598, 0.620873749256134, -0.6187830567359924, 0.6093946695327759, -0.6074605584144592, 0.729117214679718, 0.4828289747238159, 0.681039035320282, -0.6868351697921753, 0.6755788922309875, -0.6505074501037598, 0.4828289747238159, 0.6618906259536743, -0.6144542694091797, 0.6113898754119873, -0.6355370283126831, 0.680465817451477, 0.10471909493207932, -0.6468662619590759, 0.6112034320831299, -0.6080610752105713, 0.6323471665382385, -0.6783902645111084, -0.11026540398597717, 0.6427090167999268, -0.6350033283233643, 0.6319476962089539, -0.6560971736907959, 0.6977624297142029, 0.10372406244277954, -0.6680675745010376, 0.6791070103645325, -0.6771102547645569, 0.6968262791633606, -0.719843864440918, -0.04093974828720093, 0.7093607783317566, 0.055191002786159515, -0.05996015667915344, 0.060829244554042816, -0.022107789292931557, -0.27149394154548645, 0.18365435302257538, -0.6150633692741394, 0.6110655069351196, -0.6378018856048584, 0.6813754439353943, 0.20000559091567993, -0.6501768231391907, 0.6384611129760742, -0.6391969919204712, 0.6456668376922607, -0.6489598155021667, 0.33104926347732544, 0.6306337118148804, -0.6391969919204712, 0.6399496793746948, -0.6465005874633789, 0.6496942043304443, -0.32501474022865295, -0.6328693628311157, 0.6456668376922607, -0.6465005874633789, 0.6544586420059204, -0.6612088680267334, 0.3591235876083374, 0.6511529684066772, -0.6489598155021667, 0.6496942043304443, -0.6612088680267334, 0.6818524599075317, -0.5467729568481445, -0.648776113986969, 0.33104926347732544, -0.32501474022865295, 0.3591235876083374, -0.5467729568481445, 0.6654849648475647, -0.3286735415458679, 0.6306337118148804, -0.6328693628311157, 0.6511529684066772, -0.648776113986969, -0.3286735415458679, 0.6778094172477722, -0.7160568833351135, 0.7148484587669373, -0.7076755166053772, 0.6858420968055725, -0.5077348947525024, -0.6944605112075806, 0.714962899684906, -0.7137664556503296, 0.7066638469696045, -0.6850423216819763, 0.5084729790687561, 0.6934191584587097, -0.7083236575126648, 0.7071989178657532, -0.7005161046981812, 0.680148720741272, -0.5124217867851257, -0.6866042613983154, 0.6866714954376221, -0.6857782006263733, 0.6804381608963013, -0.6640525460243225, 0.5196983218193054, 0.6560741662979126, -0.4932742118835449, 0.49407872557640076, -0.49854767322540283, 0.5088323950767517, -0.4045564532279968, -0.27957451343536377, -0.7011684775352478, 0.6998843550682068, -0.6919032335281372, 0.6609488129615784, -0.31460514664649963, -0.7040385603904724, 0.7518344521522522, -0.7481274008750916, 0.7339385151863098, -0.7039506435394287, 0.4294917583465576, 0.6791305541992188, -0.7481274008750916, 0.7444435954093933, -0.7303640246391296, 0.7008729577064514, -0.4380110502243042, -0.6749612092971802, 0.7339385151863098, -0.7303640246391296, 0.7167674899101257, -0.6892055869102478, 0.46689558029174805, 0.6593948006629944, -0.7039506435394287, 0.7008729577064514, -0.6892055869102478, 0.6693483591079712, -0.5774473547935486, -0.6087436676025391, 0.4294917583465576, -0.4380110502243042, 0.46689558029174805, -0.5774473547935486, 0.7196873426437378, -0.13066519796848297, 0.6791305541992188, -0.6749612092971802, 0.6593948006629944, -0.6087436676025391, -0.13066519796848297, 0.7358353734016418, -0.5222265720367432, 0.5265371799468994, -0.5397648811340332, 0.5419801473617554, -0.054503243416547775, -0.4296002984046936, 0.5245331525802612, -0.5290428400039673, 0.5429598689079285, -0.5481908321380615, 0.07821379601955414, 0.42659991979599, -0.5311819911003113, 0.5364169478416443, -0.5527148246765137, 0.5666475892066956, -0.15400493144989014, -0.406919002532959, 0.5003301501274109, -0.5096266865730286, 0.5375754237174988, -0.5787508487701416, 0.3431088626384735, 0.11893641203641891, 0.12510079145431519, -0.10297199338674545, 0.021484071388840675, 0.2606513202190399, -0.40999579429626465, 0.43226921558380127, -0.5395337343215942, 0.5406138300895691, -0.5337664484977722, 0.25910621881484985, 0.41061970591545105, -0.5834867358207703, 1.6010260581970215, 1.5362746715545654, 1.6891412734985352, -2.358914375305176, -1.3098845481872559, 1.559105396270752, 1.468485951423645, 1.6279445886611938, -2.2942206859588623, -1.273523211479187, 1.5026583671569824, 1.7730292081832886, -2.4326817989349365, -1.3681972026824951, 1.639076590538025, 2.2343645095825195, 2.720581531524658, -2.5358059406280518, 0.8402910232543945, -1.168031096458435, 1.4695260524749756, -0.6042419672012329, 0.6050236821174622, -0.5766971707344055, 0.446077436208725, -0.19675292074680328, -0.18576562404632568, -0.6159472465515137, 0.5651969909667969, -0.34885790944099426, 0.00802652072161436, 0.20485158264636993, -0.5664718747138977, 0.5010911226272583, -0.2975001931190491, -0.267037034034729, -0.5657439231872559, 0.539393961429596, 0.12137574702501297, -0.62843918800354, 0.3916303217411041, -0.452385276556015, 1.3810981512069702, -1.904981255531311, 1.5073151588439941, -0.09838423132896423, -2.8581414222717285, 4.7426652908325195, 2.6340866088867188, -2.0783095359802246, -0.06771023571491241, 4.863342761993408, -6.253348350524902, 1.6382317543029785, -0.09489983320236206, -3.1440179347991943, 4.896024227142334, 0.40108391642570496, -0.6450203657150269, 0.6936948299407959, 3.035600423812866, -4.546041965484619, 5.123616695404053, -0.7347850203514099, 0.7394452691078186, -0.7267791628837585, 0.7031601667404175, -0.620873749256134, -0.681039035320282, -0.744120180606842, 0.7315704822540283, -0.707787275314331, 0.6187830567359924, 0.6868351697921753, -0.7188483476638794, 0.6950653195381165, -0.6093946695327759, -0.6755788922309875, -0.6724846363067627, 0.6074605584144592, 0.6505074501037598, -0.729117214679718, -0.4828289747238159, -0.6618906259536743, 4.156994342803955, -4.114923000335693, 4.088215351104736, -4.319695949554443, 1.5691890716552734, 2.3551034927368164, 4.072296619415283, -4.047582626342773, 4.288867950439453, -1.5395132303237915, -2.3232619762420654, 4.012287139892578, -4.211802005767822, 1.5471221208572388, 2.2932889461517334, 4.243989944458008, -1.7884671688079834, -2.4508087635040283, 0.7344822883605957, 0.6174353361129761, 1.1903740167617798, -0.6384611129760742, 0.6391969919204712, -0.6456668376922607, 0.6489598155021667, -0.33104926347732544, -0.6306337118148804, -0.6399496793746948, 0.6465005874633789, -0.6496942043304443, 0.32501474022865295, 0.6328693628311157, -0.6544586420059204, 0.6612088680267334, -0.3591235876083374, -0.6511529684066772, -0.6818524599075317, 0.5467729568481445, 0.648776113986969, -0.6654849648475647, 0.3286735415458679, -0.6778094172477722, 1.090872883796692, -1.0819224119186401, 1.0319308042526245, -0.9206547141075134, 0.5156111717224121, 0.7501330971717834, 1.0729987621307373, -1.0231924057006836, 0.9126555323600769, -0.515189528465271, -0.7408431768417358, 0.9746360182762146, -0.8691463470458984, 0.5195146799087524, 0.6834287643432617, 0.7858932018280029, -0.5885921716690063, -0.4709813594818115, 0.6388474106788635, -0.491280734539032, 0.857768177986145, -0.7518344521522522, 0.7481274008750916, -0.7339385151863098, 0.7039506435394287, -0.4294917583465576, -0.6791305541992188, -0.7444435954093933, 0.7303640246391296, -0.7008729577064514, 0.4380110502243042, 0.6749612092971802, -0.7167674899101257, 0.6892055869102478, -0.46689558029174805, -0.6593948006629944, -0.6693483591079712, 0.5774473547935486, 0.6087436676025391, -0.7196873426437378, 0.13066519796848297, -0.7358353734016418, 1.4822403192520142, -1.435147762298584, 1.2717949151992798, -0.49209627509117126, -2.202399253845215, 2.652045249938965, 1.3891929388046265, -1.2309798002243042, 0.4925391972064972, 2.105630397796631, -2.603747606277466, 1.0935750007629395, -0.4927261471748352, -1.697136640548706, 2.35904860496521, 0.4685182571411133, -0.27077141404151917, -0.03325507417321205, 2.03055477142334, -2.460247039794922, 2.772960662841797], [-0.29633599519729614, -0.2570146918296814, -0.33711835741996765, 0.33844712376594543, 0.2419736683368683, -0.23469199240207672, -0.2139454036951065, -0.3017970621585846, 0.31839194893836975, 0.19652646780014038, -0.18688656389713287, -0.37364301085472107, 0.35961583256721497, 0.28910887241363525, -0.2844494581222534, -0.3818211853504181, -0.24688778817653656, 0.30037400126457214, -0.24759438633918762, 0.19052037596702576, -0.16265778243541718, -0.6040464043617249, 0.6048033833503723, -0.5766024589538574, 0.4460843801498413, -0.1964316964149475, -0.18634378910064697, -0.615627110004425, 0.565178394317627, -0.3492725193500519, 0.008077354170382023, 0.2055874615907669, -0.5663352608680725, 0.5007647275924683, -0.296966552734375, -0.2671719789505005, -0.5648061633110046, 0.5383622050285339, 0.1210043653845787, -0.627426266670227, 0.3912874460220337, -0.45164674520492554, -0.6475794315338135, 0.6431165337562561, -0.6526135802268982, 0.6386700868606567, -0.4236796200275421, -0.2717037796974182, -0.6355645656585693, 0.6493942737579346, -0.6440960168838501, 0.3756113350391388, 0.36713871359825134, -0.659531831741333, 0.6433491110801697, -0.3946312367916107, -0.3384585380554199, -0.6029191017150879, 0.4370153248310089, 0.08289507031440735, -0.46706438064575195, 0.4251609146595001, -0.5673250555992126, 2.1256275177001953, -2.0865747928619385, 2.2075483798980713, -2.378445863723755, 2.1996867656707764, 2.547555446624756, 2.0463924407958984, -2.1688344478607178, 2.344249725341797, -2.1842598915100098, -2.5050971508026123, 2.286945343017578, -2.454275608062744, 2.2913658618927, 2.608160972595215, 2.6027798652648926, -2.387845993041992, -2.773175001144409, 1.602125644683838, 2.8329503536224365, 2.765519618988037, 0.2940439283847809, -0.27252140641212463, 0.4454759955406189, -0.9246208667755127, 0.2892492115497589, 0.729962944984436, 0.25116607546806335, -0.42011144757270813, 0.8946460485458374, -0.2966538667678833, -0.6869381666183472, 0.6154952049255371, -1.1544666290283203, 0.30613598227500916, 0.908817708492279, 1.7782660722732544, -0.23615069687366486, -1.6721676588058472, -0.45511430501937866, 0.4508277475833893, 0.8898893594741821, -0.6366564035415649, 0.6373801231384277, -0.643691897392273, 0.6467000246047974, -0.33002135157585144, -0.6277704834938049, -0.6381205320358276, 0.6445118188858032, -0.6474165916442871, 0.3239809572696686, 0.6299992203712463, -0.6522883176803589, 0.6587080359458923, -0.3579058051109314, -0.6479367613792419, -0.6789672374725342, 0.545147716999054, 0.6445266008377075, -0.6648417711257935, 0.32955342531204224, -0.6752397418022156, 1.9779748916625977, -2.0020806789398193, 2.1499388217926025, -2.6591808795928955, 3.4870364665985107, 1.4935779571533203, 2.0263187885284424, -2.1749258041381836, 2.6857035160064697, -3.509298086166382, -1.5154223442077637, 2.327680826187134, -2.845508098602295, 3.6329586505889893, 1.6528570652008057, 3.350672483444214, -3.825254440307617, -2.1848599910736084, 1.1757657527923584, 2.7560198307037354, 0.8751893043518066, 3.270949125289917, -3.292194128036499, 3.3675901889801025, -3.504802703857422, 3.014756679534912, 3.430276393890381, 3.312835693359375, -3.3860180377960205, 3.5183234214782715, -3.027991771697998, -3.4500324726104736, 3.4511117935180664, -3.5658178329467773, 3.0716910362243652, 3.517944097518921, 3.637547254562378, -2.949739694595337, -3.674840211868286, 0.12942661345005035, 2.952462911605835, 3.154783010482788, -0.7178559899330139, 0.7098466753959656, -0.6794456839561462, 0.6060917377471924, -0.01522490382194519, -0.23639701306819916, -0.7011845111846924, 0.66856449842453, -0.5936529040336609, 0.06381385773420334, 0.18967653810977936, -0.6282359957695007, 0.5448586344718933, -0.20523548126220703, -0.016517920419573784, -0.44992655515670776, 0.37711039185523987, -0.3776264786720276, -0.39040130376815796, 0.3691565990447998, -0.22437956929206848, 1.288665771484375, 1.463146686553955, 1.0638868808746338, 0.05000955983996391, -0.869331419467926, 1.2509686946868896, 1.4495911598205566, 1.6294702291488647, 1.2168043851852417, -0.025557013228535652, -0.9919434785842896, 1.408022165298462, 1.106178641319275, 1.273875117301941, 0.8913605809211731, 0.13283655047416687, -0.7332395315170288, 1.0741302967071533, -0.5431879162788391, -0.6384422779083252, -0.42116042971611023, -0.20488177239894867, 0.6140859127044678, -0.6076596975326538, -0.7254462242126465, -0.8653678297996521, -0.5556249022483826, -0.12899848818778992, 0.2978575825691223, -0.6223809123039246, 1.2807530164718628, 1.4585686922073364, 1.0568143129348755, -0.003705559065565467, -0.7529875040054321, 1.1904065608978271, 0.6040464043617249, -0.6048033833503723, 0.5766024589538574, -0.4460843801498413, 0.1964316964149475, 0.18634378910064697, -0.6048033833503723, 0.615627110004425, -0.565178394317627, 0.3492725193500519, -0.008077354170382023, -0.2055874615907669, 0.5766024589538574, -0.565178394317627, 0.5663352608680725, -0.5007647275924683, 0.296966552734375, 0.2671719789505005, -0.4460843801498413, 0.3492725193500519, -0.5007647275924683, 0.5648061633110046, -0.5383622050285339, -0.1210043653845787, 0.1964316964149475, -0.008077354170382023, 0.296966552734375, -0.5383622050285339, 0.627426266670227, -0.3912874460220337, 0.18634378910064697, -0.2055874615907669, 0.2671719789505005, -0.1210043653845787, -0.3912874460220337, 0.45164674520492554, -0.006518083158880472, -0.059790682047605515, 0.002449465449899435, 0.1332453340291977, -0.25120440125465393, 0.24287854135036469, -0.036524124443531036, 0.08061087876558304, -0.04658050090074539, -0.056326624006032944, 0.1688024401664734, -0.18630963563919067, -0.02243337407708168, -0.04300222545862198, -0.009924761019647121, 0.14059767127037048, -0.26279300451278687, 0.26387789845466614, 0.12355218827724457, -0.020351938903331757, 0.11251452565193176, -0.26527678966522217, 0.36351701617240906, -0.35355013608932495, -0.1493590623140335, 0.018842976540327072, -0.15706786513328552, 0.3150313198566437, -0.3520197868347168, 0.2606947720050812, 0.0021214697044342756, 0.06069521978497505, 0.039083871990442276, -0.17765536904335022, 0.13638223707675934, 0.03721489757299423, -2.1256275177001953, 2.0865747928619385, -2.2075483798980713, 2.378445863723755, -2.1996867656707764, -2.547555446624756, 2.0865747928619385, -2.0463924407958984, 2.1688344478607178, -2.344249725341797, 2.1842598915100098, 2.5050971508026123, -2.2075483798980713, 2.1688344478607178, -2.286945343017578, 2.454275608062744, -2.2913658618927, -2.608160972595215, 2.378445863723755, -2.344249725341797, 2.454275608062744, -2.6027798652648926, 2.387845993041992, 2.773175001144409, -2.1996867656707764, 2.1842598915100098, -2.2913658618927, 2.387845993041992, -1.602125644683838, -2.8329503536224365, -2.547555446624756, 2.5050971508026123, -2.608160972595215, 2.773175001144409, -2.8329503536224365, -2.765519618988037, 1.7701119184494019, -1.7316194772720337, 2.1110079288482666, -2.9549612998962402, 0.3296060562133789, 3.0936625003814697, -1.735903263092041, 1.6973682641983032, -2.072545051574707, 2.9157235622406006, -0.3277885913848877, -3.027318239212036, 2.109724760055542, -2.0667285919189453, 2.48715877532959, -3.391378164291382, 0.37199509143829346, 3.546858549118042, -2.9043731689453125, 2.8605339527130127, -3.34274959564209, 4.238424777984619, -0.4562554359436035, -4.685572147369385, 0.09009818732738495, -0.0927099660038948, 0.10161508619785309, -0.09427306056022644, -0.20953965187072754, 0.2104063183069229, 3.090268850326538, -3.0215792655944824, 3.53218936920166, -4.660769939422607, 0.5115367770195007, 4.258524417877197, 0.6366564035415649, -0.6373801231384277, 0.643691897392273, -0.6467000246047974, 0.33002135157585144, 0.6277704834938049, -0.6373801231384277, 0.6381205320358276, -0.6445118188858032, 0.6474165916442871, -0.3239809572696686, -0.6299992203712463, 0.643691897392273, -0.6445118188858032, 0.6522883176803589, -0.6587080359458923, 0.3579058051109314, 0.6479367613792419, -0.6467000246047974, 0.6474165916442871, -0.6587080359458923, 0.6789672374725342, -0.545147716999054, -0.6445266008377075, 0.33002135157585144, -0.3239809572696686, 0.3579058051109314, -0.545147716999054, 0.6648417711257935, -0.32955342531204224, 0.6277704834938049, -0.6299992203712463, 0.6479367613792419, -0.6445266008377075, -0.32955342531204224, 0.6752397418022156, 6.592003345489502, -6.601395606994629, 6.6517791748046875, -6.746064186096191, 6.037713050842285, 6.386684894561768, -6.606386184692383, 6.615677833557129, -6.665491580963135, 6.7582879066467285, -6.047290802001953, -6.40366792678833, 6.683943748474121, -6.692671775817871, 6.739262580871582, -6.8229756355285645, 6.0867743492126465, 6.499074935913086, -6.8328752517700195, 6.840245246887207, -6.8783860206604, 6.929840087890625, -5.978507995605469, -6.72044038772583, 6.103566646575928, -6.110033988952637, 6.133131504058838, -5.99847936630249, 3.142941951751709, 5.4350361824035645, 6.529874324798584, -6.540733337402344, 6.603108882904053, -6.764135837554932, 5.692903995513916, 5.568316459655762, -3.270949125289917, 3.292194128036499, -3.3675901889801025, 3.504802703857422, -3.014756679534912, -3.430276393890381, 3.292194128036499, -3.312835693359375, 3.3860180377960205, -3.5183234214782715, 3.027991771697998, 3.4500324726104736, -3.3675901889801025, 3.3860180377960205, -3.4511117935180664, 3.5658178329467773, -3.0716910362243652, -3.517944097518921, 3.504802703857422, -3.5183234214782715, 3.5658178329467773, -3.637547254562378, 2.949739694595337, 3.674840211868286, -3.014756679534912, 3.027991771697998, -3.0716910362243652, 2.949739694595337, -0.12942661345005035, -2.952462911605835, -3.430276393890381, 3.4500324726104736, -3.517944097518921, 3.674840211868286, -2.952462911605835, -3.154783010482788, -0.04750987887382507, 0.02863551862537861, 0.03572426736354828, -0.10824485123157501, -0.36432749032974243, 0.675691545009613, 0.026800110936164856, -0.0072284480556845665, -0.05929560959339142, 0.12944890558719635, 0.40413597226142883, -0.7531952857971191, 0.043971072882413864, -0.06570765376091003, 0.13890708982944489, -0.19972540438175201, -0.5226857662200928, 1.01071035861969, -0.14596042037010193, 0.1647946685552597, -0.22707979381084442, 0.20572593808174133, 0.6052086353302002, -1.2641894817352295, -0.24038547277450562, 0.28591200709342957, -0.4356916844844818, 0.6082113981246948, -0.3323160409927368, 0.14428140223026276, 0.5629986524581909, -0.6409945487976074, 0.9097545742988586, -1.2849574089050293, 0.14619778096675873, 0.5055848956108093, -0.36129230260849, -0.29235565662384033, -0.44053319096565247, 0.6010106801986694, 0.48834314942359924, -0.39126870036125183, -0.2174590826034546, -0.3789358139038086, 0.5667986273765564, 0.4447356164455414, -0.3268485367298126, -0.5108814835548401, 0.6387843489646912, 0.5374976396560669, -0.4647992253303528, -0.6301609873771667, -0.6842666864395142, 0.6294514536857605, -0.5366885662078857, 0.4988117516040802, -0.41711804270744324, -0.6040464043617249, 0.6048033833503723, -0.5766024589538574, 0.4460843801498413, -0.1964316964149475, -0.18634378910064697, -0.615627110004425, 0.565178394317627, -0.3492725193500519, 0.008077354170382023, 0.2055874615907669, -0.5663352608680725, 0.5007647275924683, -0.296966552734375, -0.2671719789505005, -0.5648061633110046, 0.5383622050285339, 0.1210043653845787, -0.627426266670227, 0.3912874460220337, -0.45164674520492554, -0.5856638550758362, 0.5714465975761414, -0.585481584072113, 0.5827505588531494, -0.41346582770347595, -0.18049010634422302, -0.5769867897033691, 0.5715302228927612, -0.5136620402336121, 0.19958916306495667, 0.33812668919563293, -0.5896404385566711, 0.5876498222351074, -0.38081929087638855, -0.24634352326393127, -0.6521338224411011, 0.5713435411453247, -0.18695276975631714, -0.5860167741775513, 0.49521830677986145, -0.5449291467666626, 2.1256275177001953, -2.0865747928619385, 2.2075483798980713, -2.378445863723755, 2.1996867656707764, 2.547555446624756, 2.0463924407958984, -2.1688344478607178, 2.344249725341797, -2.1842598915100098, -2.5050971508026123, 2.286945343017578, -2.454275608062744, 2.2913658618927, 2.608160972595215, 2.6027798652648926, -2.387845993041992, -2.773175001144409, 1.602125644683838, 2.8329503536224365, 2.765519618988037, -0.08880330622196198, 0.0969499871134758, -0.0019724308513104916, -0.23819856345653534, 0.1921132355928421, 0.35150736570358276, -0.10498524457216263, 0.012051250785589218, 0.22454321384429932, -0.19939102232456207, -0.330048143863678, 0.1005823090672493, -0.38500043749809265, 0.21071816980838776, 0.49883806705474854, 0.758230447769165, -0.16804856061935425, -0.9887909293174744, -0.5728746056556702, 0.4665921628475189, 0.8214276432991028, -0.6366564035415649, 0.6373801231384277, -0.643691897392273, 0.6467000246047974, -0.33002135157585144, -0.6277704834938049, -0.6381205320358276, 0.6445118188858032, -0.6474165916442871, 0.3239809572696686, 0.6299992203712463, -0.6522883176803589, 0.6587080359458923, -0.3579058051109314, -0.6479367613792419, -0.6789672374725342, 0.545147716999054, 0.6445266008377075, -0.6648417711257935, 0.32955342531204224, -0.6752397418022156, 2.4565882682800293, -2.472749948501587, 2.5663392543792725, -2.8216729164123535, 3.1528513431549072, 2.206078290939331, 2.488826274871826, -2.5819156169891357, 2.8356568813323975, -3.155207395553589, -2.221632719039917, 2.6720211505889893, -2.915416717529297, 3.139528512954712, 2.3137428760528564, 3.1087820529937744, -2.658869981765747, -2.563060998916626, 0.4375564455986023, 1.7171475887298584, 1.228968858718872, 3.270949125289917, -3.292194128036499, 3.3675901889801025, -3.504802703857422, 3.014756679534912, 3.430276393890381, 3.312835693359375, -3.3860180377960205, 3.5183234214782715, -3.027991771697998, -3.4500324726104736, 3.4511117935180664, -3.5658178329467773, 3.0716910362243652, 3.517944097518921, 3.637547254562378, -2.949739694595337, -3.674840211868286, 0.12942661345005035, 2.952462911605835, 3.154783010482788, -0.6412654519081116, 0.6366568803787231, -0.6184096336364746, 0.5460200905799866, -0.05620674788951874, -0.25644364953041077, -0.6316065192222595, 0.6120995283126831, -0.5419513583183289, 0.09166957437992096, 0.22710485756397247, -0.5890892148017883, 0.5269913077354431, -0.2124628871679306, -0.10872204601764679, -0.5131295323371887, 0.49516531825065613, -0.37339699268341064, -0.5000476837158203, 0.4446977972984314, -0.352133184671402], [-0.8375688791275024, -0.8450472354888916, -0.828827440738678, 0.6185880303382874, 0.8734319806098938, -0.8880348205566406, -0.852503776550293, -0.8363130688667297, 0.6233828067779541, 0.8816013932228088, -0.896154522895813, -0.8200576901435852, 0.6125171184539795, 0.8664620518684387, -0.8791180849075317, -0.501620352268219, -0.700948178768158, 0.6603177189826965, -0.7855001091957092, 0.8819689750671387, -0.9298588633537292, -0.6042419672012329, 0.6050236821174622, -0.5766971707344055, 0.446077436208725, -0.19675292074680328, -0.18576562404632568, -0.6159472465515137, 0.5651969909667969, -0.34885790944099426, 0.00802652072161436, 0.20485158264636993, -0.5664718747138977, 0.5010911226272583, -0.2975001931190491, -0.267037034034729, -0.5657439231872559, 0.539393961429596, 0.12137574702501297, -0.62843918800354, 0.3916303217411041, -0.452385276556015, -0.6591328978538513, 0.6633464694023132, -0.6599334478378296, 0.6219892501831055, -0.39916011691093445, -0.2597857117652893, -0.6702160239219666, 0.6621098518371582, -0.6130989193916321, 0.32683950662612915, 0.34723782539367676, -0.6641645431518555, 0.6328315734863281, -0.37862348556518555, -0.33138781785964966, -0.6249064207077026, 0.46470504999160767, 0.09953391551971436, -0.493211954832077, 0.41102227568626404, -0.5722798705101013, -0.7347850203514099, 0.7394452691078186, -0.7267791628837585, 0.7031601667404175, -0.620873749256134, -0.681039035320282, -0.744120180606842, 0.7315704822540283, -0.707787275314331, 0.6187830567359924, 0.6868351697921753, -0.7188483476638794, 0.6950653195381165, -0.6093946695327759, -0.6755788922309875, -0.6724846363067627, 0.6074605584144592, 0.6505074501037598, -0.729117214679718, -0.4828289747238159, -0.6618906259536743, -0.8174743056297302, 0.8111190795898438, -0.8273917436599731, 0.8863264322280884, 0.2806819677352905, -0.7134586572647095, -0.8047071099281311, 0.8210793137550354, -0.8807775378227234, -0.28988033533096313, 0.708191454410553, -0.8368803858757019, 0.893466591835022, 0.29285454750061035, -0.7268626093864441, -0.9372435212135315, -0.18886853754520416, 0.7772286534309387, -0.48371100425720215, 0.44697362184524536, -0.6817716360092163, -0.6384611129760742, 0.6391969919204712, -0.6456668376922607, 0.6489598155021667, -0.33104926347732544, -0.6306337118148804, -0.6399496793746948, 0.6465005874633789, -0.6496942043304443, 0.32501474022865295, 0.6328693628311157, -0.6544586420059204, 0.6612088680267334, -0.3591235876083374, -0.6511529684066772, -0.6818524599075317, 0.5467729568481445, 0.648776113986969, -0.6654849648475647, 0.3286735415458679, -0.6778094172477722, -0.6826167106628418, 0.683334469795227, -0.6877086162567139, 0.7008589506149292, -0.1376931220293045, -0.6258652806282043, -0.6840577721595764, 0.6884587407112122, -0.7016283273696899, 0.14274366199970245, 0.6264147758483887, -0.6929876804351807, 0.7062270641326904, -0.17608027160167694, -0.6290268301963806, -0.7197015285491943, 0.3224894404411316, 0.622756838798523, -0.6565293669700623, 0.3021978735923767, -0.6602065563201904, -0.7518344521522522, 0.7481274008750916, -0.7339385151863098, 0.7039506435394287, -0.4294917583465576, -0.6791305541992188, -0.7444435954093933, 0.7303640246391296, -0.7008729577064514, 0.4380110502243042, 0.6749612092971802, -0.7167674899101257, 0.6892055869102478, -0.46689558029174805, -0.6593948006629944, -0.6693483591079712, 0.5774473547935486, 0.6087436676025391, -0.7196873426437378, 0.13066519796848297, -0.7358353734016418, -0.9373942017555237, 0.9424052834510803, -0.9578093886375427, 0.959338903427124, 0.15039385855197906, -0.7235978841781616, -0.9475338459014893, 0.9632253646850586, -0.9642424583435059, -0.10483556240797043, 0.7111660242080688, -0.9789791703224182, 0.9673441052436829, -0.04169992730021477, -0.6399095058441162, -0.8417022824287415, 0.30606770515441895, 0.13552407920360565, -0.43101033568382263, 0.473699152469635, -0.6627430319786072, -1.57220458984375, -1.5634945631027222, -1.5786635875701904, 1.233414649963379, 1.2625809907913208, -1.5446134805679321, -1.565005898475647, -1.5541094541549683, -1.5744447708129883, 1.2405248880386353, 1.2624845504760742, -1.5379564762115479, -1.5793805122375488, -1.5732616186141968, -1.5823848247528076, 1.2247323989868164, 1.2636131048202515, -1.5522985458374023, 0.9406112432479858, 0.9408825039863586, 0.9384836554527283, -0.785629153251648, -0.8648371696472168, 0.957743763923645, 1.3186728954315186, 1.3234115839004517, 1.3137545585632324, -1.226985216140747, -1.0026073455810547, 1.2417221069335938, -1.5389405488967896, -1.534044623374939, -1.5431859493255615, 1.296082615852356, 1.1852020025253296, -1.4781321287155151, 0.6042419672012329, -0.6050236821174622, 0.5766971707344055, -0.446077436208725, 0.19675292074680328, 0.18576562404632568, -0.6050236821174622, 0.6159472465515137, -0.5651969909667969, 0.34885790944099426, -0.00802652072161436, -0.20485158264636993, 0.5766971707344055, -0.5651969909667969, 0.5664718747138977, -0.5010911226272583, 0.2975001931190491, 0.267037034034729, -0.446077436208725, 0.34885790944099426, -0.5010911226272583, 0.5657439231872559, -0.539393961429596, -0.12137574702501297, 0.19675292074680328, -0.00802652072161436, 0.2975001931190491, -0.539393961429596, 0.62843918800354, -0.3916303217411041, 0.18576562404632568, -0.20485158264636993, 0.267037034034729, -0.12137574702501297, -0.3916303217411041, 0.452385276556015, -0.048262644559144974, -0.008223661221563816, -0.03398600593209267, 0.14139677584171295, -0.25067612528800964, 0.254544734954834, 0.037492718547582626, -0.008973529562354088, 0.018220363184809685, -0.07171875238418579, 0.16794472932815552, -0.20651035010814667, -0.04847889021039009, -0.01077927928417921, -0.032640136778354645, 0.14557932317256927, -0.26245003938674927, 0.2713641822338104, 0.06652725487947464, 0.05319247022271156, 0.06291453540325165, -0.25523731112480164, 0.36385247111320496, -0.3384372889995575, -0.07695340365171432, -0.07598813623189926, -0.09474346041679382, 0.30378299951553345, -0.35230180621147156, 0.24374563992023468, 0.03537348657846451, 0.021346278488636017, 0.06830676645040512, -0.1844746619462967, 0.1358068287372589, 0.030931826680898666, 0.7347850203514099, -0.7394452691078186, 0.7267791628837585, -0.7031601667404175, 0.620873749256134, 0.681039035320282, -0.7394452691078186, 0.744120180606842, -0.7315704822540283, 0.707787275314331, -0.6187830567359924, -0.6868351697921753, 0.7267791628837585, -0.7315704822540283, 0.7188483476638794, -0.6950653195381165, 0.6093946695327759, 0.6755788922309875, -0.7031601667404175, 0.707787275314331, -0.6950653195381165, 0.6724846363067627, -0.6074605584144592, -0.6505074501037598, 0.620873749256134, -0.6187830567359924, 0.6093946695327759, -0.6074605584144592, 0.729117214679718, 0.4828289747238159, 0.681039035320282, -0.6868351697921753, 0.6755788922309875, -0.6505074501037598, 0.4828289747238159, 0.6618906259536743, -0.6144542694091797, 0.6113898754119873, -0.6355370283126831, 0.680465817451477, 0.10471909493207932, -0.6468662619590759, 0.6112034320831299, -0.6080610752105713, 0.6323471665382385, -0.6783902645111084, -0.11026540398597717, 0.6427090167999268, -0.6350033283233643, 0.6319476962089539, -0.6560971736907959, 0.6977624297142029, 0.10372406244277954, -0.6680675745010376, 0.6791070103645325, -0.6771102547645569, 0.6968262791633606, -0.719843864440918, -0.04093974828720093, 0.7093607783317566, 0.055191002786159515, -0.05996015667915344, 0.060829244554042816, -0.022107789292931557, -0.27149394154548645, 0.18365435302257538, -0.6150633692741394, 0.6110655069351196, -0.6378018856048584, 0.6813754439353943, 0.20000559091567993, -0.6501768231391907, 0.6384611129760742, -0.6391969919204712, 0.6456668376922607, -0.6489598155021667, 0.33104926347732544, 0.6306337118148804, -0.6391969919204712, 0.6399496793746948, -0.6465005874633789, 0.6496942043304443, -0.32501474022865295, -0.6328693628311157, 0.6456668376922607, -0.6465005874633789, 0.6544586420059204, -0.6612088680267334, 0.3591235876083374, 0.6511529684066772, -0.6489598155021667, 0.6496942043304443, -0.6612088680267334, 0.6818524599075317, -0.5467729568481445, -0.648776113986969, 0.33104926347732544, -0.32501474022865295, 0.3591235876083374, -0.5467729568481445, 0.6654849648475647, -0.3286735415458679, 0.6306337118148804, -0.6328693628311157, 0.6511529684066772, -0.648776113986969, -0.3286735415458679, 0.6778094172477722, -0.7160568833351135, 0.7148484587669373, -0.7076755166053772, 0.6858420968055725, -0.5077348947525024, -0.6944605112075806, 0.714962899684906, -0.7137664556503296, 0.7066638469696045, -0.6850423216819763, 0.5084729790687561, 0.6934191584587097, -0.7083236575126648, 0.7071989178657532, -0.7005161046981812, 0.680148720741272, -0.5124217867851257, -0.6866042613983154, 0.6866714954376221, -0.6857782006263733, 0.6804381608963013, -0.6640525460243225, 0.5196983218193054, 0.6560741662979126, -0.4932742118835449, 0.49407872557640076, -0.49854767322540283, 0.5088323950767517, -0.4045564532279968, -0.27957451343536377, -0.7011684775352478, 0.6998843550682068, -0.6919032335281372, 0.6609488129615784, -0.31460514664649963, -0.7040385603904724, 0.7518344521522522, -0.7481274008750916, 0.7339385151863098, -0.7039506435394287, 0.4294917583465576, 0.6791305541992188, -0.7481274008750916, 0.7444435954093933, -0.7303640246391296, 0.7008729577064514, -0.4380110502243042, -0.6749612092971802, 0.7339385151863098, -0.7303640246391296, 0.7167674899101257, -0.6892055869102478, 0.46689558029174805, 0.6593948006629944, -0.7039506435394287, 0.7008729577064514, -0.6892055869102478, 0.6693483591079712, -0.5774473547935486, -0.6087436676025391, 0.4294917583465576, -0.4380110502243042, 0.46689558029174805, -0.5774473547935486, 0.7196873426437378, -0.13066519796848297, 0.6791305541992188, -0.6749612092971802, 0.6593948006629944, -0.6087436676025391, -0.13066519796848297, 0.7358353734016418, -0.5222265720367432, 0.5265371799468994, -0.5397648811340332, 0.5419801473617554, -0.054503243416547775, -0.4296002984046936, 0.5245331525802612, -0.5290428400039673, 0.5429598689079285, -0.5481908321380615, 0.07821379601955414, 0.42659991979599, -0.5311819911003113, 0.5364169478416443, -0.5527148246765137, 0.5666475892066956, -0.15400493144989014, -0.406919002532959, 0.5003301501274109, -0.5096266865730286, 0.5375754237174988, -0.5787508487701416, 0.3431088626384735, 0.11893641203641891, 0.12510079145431519, -0.10297199338674545, 0.021484071388840675, 0.2606513202190399, -0.40999579429626465, 0.43226921558380127, -0.5395337343215942, 0.5406138300895691, -0.5337664484977722, 0.25910621881484985, 0.41061970591545105, -0.5834867358207703, 1.6009999513626099, 1.5318689346313477, 1.7084999084472656, -3.6041693687438965, -0.4309479594230652, 1.2503927946090698, 1.4598960876464844, 1.6424375772476196, -3.512984037399292, -0.39999687671661377, 1.1950067281723022, 1.812820553779602, -3.729663372039795, -0.4839100241661072, 1.3399001359939575, 4.830348968505859, 2.199856758117676, -3.311708688735962, -0.18829569220542908, -0.2103375941514969, 0.9145805835723877, -0.6042419672012329, 0.6050236821174622, -0.5766971707344055, 0.446077436208725, -0.19675292074680328, -0.18576562404632568, -0.6159472465515137, 0.5651969909667969, -0.34885790944099426, 0.00802652072161436, 0.20485158264636993, -0.5664718747138977, 0.5010911226272583, -0.2975001931190491, -0.267037034034729, -0.5657439231872559, 0.539393961429596, 0.12137574702501297, -0.62843918800354, 0.3916303217411041, -0.452385276556015, -0.09730827808380127, 0.10668890923261642, -0.1635480523109436, 0.15568582713603973, 0.22986727952957153, -0.8134220838546753, 0.3503701984882355, 0.05519799888134003, -1.3343732357025146, 3.35986590385437, -2.607651472091675, -0.2001793384552002, 0.48495912551879883, -0.6203789710998535, 0.07552008330821991, 1.7875163555145264, -4.6471076011657715, 7.263988971710205, 7.721968650817871, -9.324261665344238, 7.749546527862549, -0.7347850203514099, 0.7394452691078186, -0.7267791628837585, 0.7031601667404175, -0.620873749256134, -0.681039035320282, -0.744120180606842, 0.7315704822540283, -0.707787275314331, 0.6187830567359924, 0.6868351697921753, -0.7188483476638794, 0.6950653195381165, -0.6093946695327759, -0.6755788922309875, -0.6724846363067627, 0.6074605584144592, 0.6505074501037598, -0.729117214679718, -0.4828289747238159, -0.6618906259536743, 5.706451892852783, -5.721283435821533, 5.720169544219971, -5.525318145751953, -4.099211692810059, 5.9095540046691895, 5.734567165374756, -5.7359514236450195, 5.557986259460449, 4.079851150512695, -5.895037651062012, 5.721724033355713, -5.490828514099121, -4.131826877593994, 5.864744663238525, 5.041283130645752, 4.331579685211182, -5.815421104431152, 1.537299394607544, -3.5576484203338623, 5.174522399902344, -0.6384611129760742, 0.6391969919204712, -0.6456668376922607, 0.6489598155021667, -0.33104926347732544, -0.6306337118148804, -0.6399496793746948, 0.6465005874633789, -0.6496942043304443, 0.32501474022865295, 0.6328693628311157, -0.6544586420059204, 0.6612088680267334, -0.3591235876083374, -0.6511529684066772, -0.6818524599075317, 0.5467729568481445, 0.648776113986969, -0.6654849648475647, 0.3286735415458679, -0.6778094172477722, 1.6254353523254395, -1.605837345123291, 1.4807177782058716, -0.9710828065872192, -3.219524383544922, 3.072751522064209, 1.5866672992706299, -1.4641114473342896, 0.9632335305213928, 3.1596148014068604, -3.039280414581299, 1.3568854331970215, -0.9080274105072021, -2.7940590381622314, 2.8291780948638916, 0.6317607164382935, 1.5538609027862549, -1.9932780265808105, 0.8070138692855835, -2.1273555755615234, 3.795790433883667, -0.7518344521522522, 0.7481274008750916, -0.7339385151863098, 0.7039506435394287, -0.4294917583465576, -0.6791305541992188, -0.7444435954093933, 0.7303640246391296, -0.7008729577064514, 0.4380110502243042, 0.6749612092971802, -0.7167674899101257, 0.6892055869102478, -0.46689558029174805, -0.6593948006629944, -0.6693483591079712, 0.5774473547935486, 0.6087436676025391, -0.7196873426437378, 0.13066519796848297, -0.7358353734016418, 9.413954734802246, -9.259099006652832, 8.705992698669434, -5.9760541915893555, -6.1129631996154785, 10.321612358093262, 9.09902286529541, -8.534017562866211, 5.844087600708008, 5.948406219482422, -10.354124069213867, 7.9464802742004395, -5.415884494781494, -5.172245502471924, 10.233230590820312, 3.8237855434417725, 0.8935300707817078, -4.9511895179748535, 3.4197115898132324, -4.509638786315918, 6.183506488800049], [-0.5085722208023071, -0.5092147588729858, -0.508205235004425, 0.46648845076560974, 0.4012725055217743, -0.49477070569992065, -0.5098655223846436, -0.5088517069816589, 0.46780332922935486, 0.40032339096069336, -0.4950408637523651, -0.5078080296516418, 0.46522459387779236, 0.40337398648262024, -0.49514898657798767, -0.44352391362190247, -0.3976975083351135, 0.46679946780204773, -0.2907489538192749, 0.37000465393066406, -0.47257256507873535, 0.7123351097106934, -0.8416276574134827, 0.34583163261413574, 0.17122267186641693, 0.24962033331394196, -0.9754936099052429, 0.9206169247627258, -0.49187028408050537, -0.008127420209348202, -0.4831049144268036, 1.0626133680343628, 0.03957594558596611, 0.3380848169326782, -0.012345061637461185, -0.7729730606079102, -0.5307629108428955, 0.4783822000026703, 0.2762124538421631, -0.5133036375045776, 0.16457951068878174, -0.18840204179286957, -0.5593364238739014, 0.5574171543121338, -0.582017719745636, 0.5704785585403442, -0.29552870988845825, -0.42710697650909424, -0.5524245500564575, 0.5780773162841797, -0.574240505695343, 0.26200681924819946, 0.46186596155166626, -0.6017536520957947, 0.5941286683082581, -0.3122688829898834, -0.4277426302433014, -0.5644235610961914, 0.3418414890766144, 0.2753869593143463, -0.2642627954483032, 0.07868387550115585, -0.25124722719192505, -0.2149754762649536, 0.21150654554367065, -0.1870862990617752, 0.18254928290843964, -0.5704014897346497, 0.02699749730527401, -0.2055947184562683, 0.1823483407497406, -0.18500767648220062, 0.6543821692466736, -0.05762124061584473, -0.15780939161777496, 0.15684199333190918, -0.5978879928588867, 0.07182081788778305, -0.13505743443965912, 0.34313109517097473, 0.002771115629002452, 1.793170690536499, -1.3867765665054321, 0.554612934589386, -0.21072615683078766, 0.22394344210624695, -0.2107612043619156, 0.07801361382007599, 0.763396143913269, -0.45356833934783936, -0.2367093563079834, 0.22432217001914978, -0.09525837004184723, -0.7437540888786316, 0.45775794982910156, -0.21146532893180847, 0.07841763645410538, 0.7952805161476135, -0.46243754029273987, 0.0740283727645874, -1.065224289894104, 0.4187523424625397, -0.18088088929653168, 0.556550145149231, -0.5576426982879639, 0.22926850616931915, -0.2280205339193344, 0.22435139119625092, -0.23194918036460876, 0.29633745551109314, 0.05225265026092529, 0.22675721347332, -0.22311414778232574, 0.23103965818881989, -0.29705891013145447, -0.049856722354888916, 0.22114013135433197, -0.23407740890979767, 0.3264356553554535, 0.04410349205136299, 0.2572316527366638, -0.3856534957885742, -0.06654179841279984, 0.14312604069709778, 0.177321657538414, -0.10888206213712692, -0.3742673099040985, 0.3736771047115326, -0.3707398772239685, 0.37065452337265015, -0.1543077528476715, -0.2734200358390808, -0.3730931580066681, 0.3702027201652527, -0.3704180419445038, 0.1605004370212555, 0.27143594622612, -0.367639422416687, 0.36967942118644714, -0.19712062180042267, -0.2605915665626526, -0.3780057430267334, 0.3027716875076294, 0.24237364530563354, -0.3297998011112213, -0.03998096287250519, -0.1393701732158661, -0.13675738871097565, 0.13400503993034363, -0.1261352002620697, 0.02398058958351612, 2.243086814880371, -0.8944217562675476, -0.13129262626171112, 0.12358009070158005, -0.021939806640148163, -2.2472691535949707, 0.8919506072998047, -0.1164664626121521, 0.017123429104685783, 2.246795654296875, -0.8809539079666138, 0.08730217814445496, -2.5324978828430176, 0.893206000328064, 3.4060609340667725, -1.1650511026382446, -0.4922609329223633, -0.269840270280838, 0.25580325722694397, -0.20724907517433167, -0.06675924360752106, 1.1041862964630127, -0.908607006072998, -0.24157235026359558, 0.1926003098487854, 0.07905782014131546, -1.0979819297790527, 0.9159769415855408, -0.14301235973834991, -0.11595446616411209, 0.982408344745636, -0.9051998853683472, 0.24773544073104858, -0.43795350193977356, 0.49698448181152344, -0.01118374615907669, 0.19362770020961761, -0.43759655952453613, 1.036887764930725, 1.0103110074996948, 1.0803196430206299, -1.2655761241912842, -0.820406973361969, 1.061611533164978, 1.0180540084838867, 0.989465057849884, 1.0643455982208252, -1.2714016437530518, -0.8070263266563416, 1.042420506477356, 1.047885537147522, 1.0239133834838867, 1.0877021551132202, -1.248645305633545, -0.8292531967163086, 1.07423734664917, -0.26806652545928955, -0.25870075821876526, -0.2834897041320801, 0.30974531173706055, 0.4258088767528534, -0.34575343132019043, -0.9744858145713806, -0.966156005859375, -1.0000487565994263, 1.625116229057312, 0.5603699684143066, -0.8959751725196838, 1.0074734687805176, 0.9859592318534851, 1.0474210977554321, -1.4218558073043823, -0.6900061368942261, 0.9853476285934448, -0.7123351097106934, 0.8416276574134827, -0.34583163261413574, -0.17122267186641693, -0.24962033331394196, 0.9754936099052429, 0.8416276574134827, -0.9206169247627258, 0.49187028408050537, 0.008127420209348202, 0.4831049144268036, -1.0626133680343628, -0.34583163261413574, 0.49187028408050537, -0.03957594558596611, -0.3380848169326782, 0.012345061637461185, 0.7729730606079102, -0.17122267186641693, 0.008127420209348202, -0.3380848169326782, 0.5307629108428955, -0.4783822000026703, -0.2762124538421631, -0.24962033331394196, 0.4831049144268036, 0.012345061637461185, -0.4783822000026703, 0.5133036375045776, -0.16457951068878174, 0.9754936099052429, -1.0626133680343628, 0.7729730606079102, -0.2762124538421631, -0.16457951068878174, 0.18840204179286957, -0.4620654284954071, 0.43786895275115967, -0.4113101363182068, 0.38695192337036133, -0.40556877851486206, 0.3240605294704437, 0.41348689794540405, -0.3588040769100189, 0.3648943305015564, -0.41555389761924744, 0.4900369644165039, -0.3889063000679016, -0.40327391028404236, 0.3648952543735504, -0.3609730005264282, 0.3751760721206665, -0.41111868619918823, 0.32605430483818054, 0.4505755603313446, -0.4853278398513794, 0.41020551323890686, -0.2714226543903351, 0.19730134308338165, -0.1253371238708496, -0.6210318207740784, 0.7998566627502441, -0.5581889152526855, 0.15250883996486664, 0.0429946668446064, -0.12923769652843475, 0.5102130174636841, -0.6853627562522888, 0.4535098969936371, 0.048026323318481445, -0.324057936668396, 0.2627105116844177, 0.2149754762649536, -0.21150654554367065, 0.1870862990617752, -0.18254928290843964, 0.5704014897346497, -0.02699749730527401, -0.21150654554367065, 0.2055947184562683, -0.1823483407497406, 0.18500767648220062, -0.6543821692466736, 0.05762124061584473, 0.1870862990617752, -0.1823483407497406, 0.15780939161777496, -0.15684199333190918, 0.5978879928588867, -0.07182081788778305, -0.18254928290843964, 0.18500767648220062, -0.15684199333190918, 0.13505743443965912, -0.34313109517097473, -0.002771115629002452, 0.5704014897346497, -0.6543821692466736, 0.5978879928588867, -0.34313109517097473, -1.793170690536499, 1.3867765665054321, -0.02699749730527401, 0.05762124061584473, -0.07182081788778305, -0.002771115629002452, 1.3867765665054321, -0.554612934589386, 0.6458982229232788, -0.6399052739143372, 0.6846089959144592, -0.7801721096038818, 0.03824916109442711, 0.6903867721557617, -0.6138401031494141, 0.6078847646713257, -0.6510416269302368, 0.7453119158744812, -0.03956210985779762, -0.6527050733566284, 0.6735938191413879, -0.6676258444786072, 0.7063009142875671, -0.7873185276985168, 0.0712914988398552, 0.677138090133667, -0.980722963809967, 0.9763054847717285, -1.0078312158584595, 1.0517017841339111, -0.11816990375518799, -0.9471603631973267, 1.603119134902954, -1.5813223123550415, 1.7371068000793457, -2.1411681175231934, -0.1617497056722641, 1.7593461275100708, 0.024067245423793793, -0.021611856296658516, 0.0032857335172593594, 0.009740456007421017, 0.25146135687828064, -0.1579117625951767, -0.22926850616931915, 0.2280205339193344, -0.22435139119625092, 0.23194918036460876, -0.29633745551109314, -0.05225265026092529, 0.2280205339193344, -0.22675721347332, 0.22311414778232574, -0.23103965818881989, 0.29705891013145447, 0.049856722354888916, -0.22435139119625092, 0.22311414778232574, -0.22114013135433197, 0.23407740890979767, -0.3264356553554535, -0.04410349205136299, 0.23194918036460876, -0.23103965818881989, 0.23407740890979767, -0.2572316527366638, 0.3856534957885742, 0.06654179841279984, -0.29633745551109314, 0.29705891013145447, -0.3264356553554535, 0.3856534957885742, -0.14312604069709778, -0.177321657538414, -0.05225265026092529, 0.049856722354888916, -0.04410349205136299, 0.06654179841279984, -0.177321657538414, 0.10888206213712692, 0.5628919005393982, -0.5557577013969421, 0.5114848017692566, -0.34595683217048645, -0.7680530548095703, 1.1170628070831299, -0.5614210367202759, 0.5542892217636108, -0.5100482106208801, 0.3448353111743927, 0.7657150030136108, -1.114156723022461, 0.5472923517227173, -0.540199875831604, 0.4963037371635437, -0.3335205316543579, -0.7508916258811951, 1.089697241783142, -0.43642762303352356, 0.42975878715515137, -0.3888227045536041, 0.24098947644233704, 0.6879631280899048, -0.9170714020729065, -0.7208276391029358, 0.7222979068756104, -0.7273051738739014, 0.6983500719070435, -0.23733624815940857, -0.8097935318946838, 1.3081923723220825, -1.2990821599960327, 1.241005539894104, -1.0041571855545044, -0.7587089538574219, 1.9828696250915527, 0.13675738871097565, -0.13400503993034363, 0.1261352002620697, -0.02398058958351612, -2.243086814880371, 0.8944217562675476, -0.13400503993034363, 0.13129262626171112, -0.12358009070158005, 0.021939806640148163, 2.2472691535949707, -0.8919506072998047, 0.1261352002620697, -0.12358009070158005, 0.1164664626121521, -0.017123429104685783, -2.246795654296875, 0.8809539079666138, -0.02398058958351612, 0.021939806640148163, -0.017123429104685783, -0.08730217814445496, 2.5324978828430176, -0.893206000328064, -2.243086814880371, 2.2472691535949707, -2.246795654296875, 2.5324978828430176, -3.4060609340667725, 1.1650511026382446, 0.8944217562675476, -0.8919506072998047, 0.8809539079666138, -0.893206000328064, 1.1650511026382446, 0.4922609329223633, 0.47936341166496277, -0.4901989996433258, 0.5234094858169556, -0.7342040538787842, 1.3588082790374756, -0.8041634559631348, -0.5219994187355042, 0.5328046083450317, -0.5657576322555542, 0.7743719220161438, -1.4042701721191406, 0.8077898621559143, 0.6602335572242737, -0.670572817325592, 0.7014742493629456, -0.8981882929801941, 1.5002191066741943, -0.8004019856452942, -1.2433604001998901, 1.250220775604248, -1.265777349472046, 1.3536169528961182, -1.2636210918426514, 0.5399982929229736, 2.630890369415283, -2.720851182937622, 2.925419330596924, -2.290724754333496, 0.5220472812652588, 0.15064331889152527, -1.5233577489852905, 1.5687448978424072, -1.69579017162323, 1.6535207033157349, -0.19306445121765137, -0.35503053665161133, -0.01470876019448042, -0.011416046880185604, -0.006768797989934683, -0.5242257118225098, 0.19765116274356842, -0.03936205431818962, -0.008879453875124454, -0.0025054109282791615, -0.5350762009620667, 0.19434306025505066, -0.035204388201236725, -5.141538167663384e-06, -0.5208713412284851, 0.1921698898077011, -0.032497163861989975, 0.707760214805603, 0.412187784910202, -0.5566570162773132, -0.3344789743423462, 0.22537915408611298, -0.07048740237951279, 0.7123351097106934, -0.8416276574134827, 0.34583163261413574, 0.17122267186641693, 0.24962033331394196, -0.9754936099052429, 0.9206169247627258, -0.49187028408050537, -0.008127420209348202, -0.4831049144268036, 1.0626133680343628, 0.03957594558596611, 0.3380848169326782, -0.012345061637461185, -0.7729730606079102, -0.5307629108428955, 0.4783822000026703, 0.2762124538421631, -0.5133036375045776, 0.16457951068878174, -0.18840204179286957, -0.25997206568717957, 0.19241833686828613, -0.2797776162624359, 0.44403716921806335, -0.4903801679611206, 0.031899482011795044, -0.12867379188537598, 0.21851862967014313, -0.39793476462364197, 0.42081746459007263, 0.0456569604575634, -0.303029328584671, 0.45153313875198364, -0.44369223713874817, -0.0613490454852581, -0.48813554644584656, 0.4055023491382599, -0.08814083784818649, -0.3620477020740509, 0.30756935477256775, -0.4082143008708954, -0.2149754762649536, 0.21150654554367065, -0.1870862990617752, 0.18254928290843964, -0.5704014897346497, 0.02699749730527401, -0.2055947184562683, 0.1823483407497406, -0.18500767648220062, 0.6543821692466736, -0.05762124061584473, -0.15780939161777496, 0.15684199333190918, -0.5978879928588867, 0.07182081788778305, -0.13505743443965912, 0.34313109517097473, 0.002771115629002452, 1.793170690536499, -1.3867765665054321, 0.554612934589386, -0.10881222039461136, 0.11494015157222748, -0.0853605568408966, -0.017910530790686607, 0.41690677404403687, -0.102615125477314, -0.12096871435642242, 0.09200788289308548, 0.009808933362364769, -0.415042519569397, 0.10966164618730545, -0.060917481780052185, -0.048078715801239014, 0.44354844093322754, -0.08717477321624756, 0.1727941781282425, -0.5091567635536194, -0.013640732504427433, -0.24492383003234863, 0.5108792185783386, -0.1719043254852295, 0.22926850616931915, -0.2280205339193344, 0.22435139119625092, -0.23194918036460876, 0.29633745551109314, 0.05225265026092529, 0.22675721347332, -0.22311414778232574, 0.23103965818881989, -0.29705891013145447, -0.049856722354888916, 0.22114013135433197, -0.23407740890979767, 0.3264356553554535, 0.04410349205136299, 0.2572316527366638, -0.3856534957885742, -0.06654179841279984, 0.14312604069709778, 0.177321657538414, -0.10888206213712692, 0.3694293200969696, -0.36659613251686096, 0.3473624289035797, -0.25455302000045776, -0.6336926221847534, 0.7150679230690002, 0.3637288808822632, -0.34431686997413635, 0.2512257695198059, 0.6336060762405396, -0.7117010354995728, 0.3239843249320984, -0.22953978180885315, -0.6286884546279907, 0.6890990734100342, 0.13464835286140442, 0.5490488409996033, -0.5770965218544006, -0.17234188318252563, -0.2131955474615097, 0.7824789881706238, -0.13675738871097565, 0.13400503993034363, -0.1261352002620697, 0.02398058958351612, 2.243086814880371, -0.8944217562675476, -0.13129262626171112, 0.12358009070158005, -0.021939806640148163, -2.2472691535949707, 0.8919506072998047, -0.1164664626121521, 0.017123429104685783, 2.246795654296875, -0.8809539079666138, 0.08730217814445496, -2.5324978828430176, 0.893206000328064, 3.4060609340667725, -1.1650511026382446, -0.4922609329223633, -0.21847066283226013, 0.2126154601573944, -0.192325621843338, 0.08730895817279816, 0.3102543354034424, -0.3951176404953003, -0.2067144364118576, 0.18644078075885773, -0.08463074266910553, -0.30359143018722534, 0.3942541182041168, -0.16672158241271973, 0.0760398879647255, 0.2704772651195526, -0.38219425082206726, -0.04443499445915222, -0.04324217513203621, 0.10942896455526352, -0.21712695062160492, 0.29930925369262695, -0.37667274475097656], [-0.8375688791275024, -0.8450472354888916, -0.828827440738678, 0.6185880303382874, 0.8734319806098938, -0.8880348205566406, -0.852503776550293, -0.8363130688667297, 0.6233828067779541, 0.8816013932228088, -0.896154522895813, -0.8200576901435852, 0.6125171184539795, 0.8664620518684387, -0.8791180849075317, -0.501620352268219, -0.700948178768158, 0.6603177189826965, -0.7855001091957092, 0.8819689750671387, -0.9298588633537292, -0.6042419672012329, 0.6050236821174622, -0.5766971707344055, 0.446077436208725, -0.19675292074680328, -0.18576562404632568, -0.6159472465515137, 0.5651969909667969, -0.34885790944099426, 0.00802652072161436, 0.20485158264636993, -0.5664718747138977, 0.5010911226272583, -0.2975001931190491, -0.267037034034729, -0.5657439231872559, 0.539393961429596, 0.12137574702501297, -0.62843918800354, 0.3916303217411041, -0.452385276556015, -0.6591328978538513, 0.6633464694023132, -0.6599334478378296, 0.6219892501831055, -0.39916011691093445, -0.2597857117652893, -0.6702160239219666, 0.6621098518371582, -0.6130989193916321, 0.32683950662612915, 0.34723782539367676, -0.6641645431518555, 0.6328315734863281, -0.37862348556518555, -0.33138781785964966, -0.6249064207077026, 0.46470504999160767, 0.09953391551971436, -0.493211954832077, 0.41102227568626404, -0.5722798705101013, -0.7347850203514099, 0.7394452691078186, -0.7267791628837585, 0.7031601667404175, -0.620873749256134, -0.681039035320282, -0.744120180606842, 0.7315704822540283, -0.707787275314331, 0.6187830567359924, 0.6868351697921753, -0.7188483476638794, 0.6950653195381165, -0.6093946695327759, -0.6755788922309875, -0.6724846363067627, 0.6074605584144592, 0.6505074501037598, -0.729117214679718, -0.4828289747238159, -0.6618906259536743, -0.8174743056297302, 0.8111190795898438, -0.8273917436599731, 0.8863264322280884, 0.2806819677352905, -0.7134586572647095, -0.8047071099281311, 0.8210793137550354, -0.8807775378227234, -0.28988033533096313, 0.708191454410553, -0.8368803858757019, 0.893466591835022, 0.29285454750061035, -0.7268626093864441, -0.9372435212135315, -0.18886853754520416, 0.7772286534309387, -0.48371100425720215, 0.44697362184524536, -0.6817716360092163, -0.6384611129760742, 0.6391969919204712, -0.6456668376922607, 0.6489598155021667, -0.33104926347732544, -0.6306337118148804, -0.6399496793746948, 0.6465005874633789, -0.6496942043304443, 0.32501474022865295, 0.6328693628311157, -0.6544586420059204, 0.6612088680267334, -0.3591235876083374, -0.6511529684066772, -0.6818524599075317, 0.5467729568481445, 0.648776113986969, -0.6654849648475647, 0.3286735415458679, -0.6778094172477722, -0.6826167106628418, 0.683334469795227, -0.6877086162567139, 0.7008589506149292, -0.1376931220293045, -0.6258652806282043, -0.6840577721595764, 0.6884587407112122, -0.7016283273696899, 0.14274366199970245, 0.6264147758483887, -0.6929876804351807, 0.7062270641326904, -0.17608027160167694, -0.6290268301963806, -0.7197015285491943, 0.3224894404411316, 0.622756838798523, -0.6565293669700623, 0.3021978735923767, -0.6602065563201904, -0.7518344521522522, 0.7481274008750916, -0.7339385151863098, 0.7039506435394287, -0.4294917583465576, -0.6791305541992188, -0.7444435954093933, 0.7303640246391296, -0.7008729577064514, 0.4380110502243042, 0.6749612092971802, -0.7167674899101257, 0.6892055869102478, -0.46689558029174805, -0.6593948006629944, -0.6693483591079712, 0.5774473547935486, 0.6087436676025391, -0.7196873426437378, 0.13066519796848297, -0.7358353734016418, -0.9373942017555237, 0.9424052834510803, -0.9578093886375427, 0.959338903427124, 0.15039385855197906, -0.7235978841781616, -0.9475338459014893, 0.9632253646850586, -0.9642424583435059, -0.10483556240797043, 0.7111660242080688, -0.9789791703224182, 0.9673441052436829, -0.04169992730021477, -0.6399095058441162, -0.8417022824287415, 0.30606770515441895, 0.13552407920360565, -0.43101033568382263, 0.473699152469635, -0.6627430319786072, -1.57220458984375, -1.5634945631027222, -1.5786635875701904, 1.233414649963379, 1.2625809907913208, -1.5446134805679321, -1.565005898475647, -1.5541094541549683, -1.5744447708129883, 1.2405248880386353, 1.2624845504760742, -1.5379564762115479, -1.5793805122375488, -1.5732616186141968, -1.5823848247528076, 1.2247323989868164, 1.2636131048202515, -1.5522985458374023, 0.9406112432479858, 0.9408825039863586, 0.9384836554527283, -0.785629153251648, -0.8648371696472168, 0.957743763923645, 1.3186728954315186, 1.3234115839004517, 1.3137545585632324, -1.226985216140747, -1.0026073455810547, 1.2417221069335938, -1.5389405488967896, -1.534044623374939, -1.5431859493255615, 1.296082615852356, 1.1852020025253296, -1.4781321287155151, 0.6042419672012329, -0.6050236821174622, 0.5766971707344055, -0.446077436208725, 0.19675292074680328, 0.18576562404632568, -0.6050236821174622, 0.6159472465515137, -0.5651969909667969, 0.34885790944099426, -0.00802652072161436, -0.20485158264636993, 0.5766971707344055, -0.5651969909667969, 0.5664718747138977, -0.5010911226272583, 0.2975001931190491, 0.267037034034729, -0.446077436208725, 0.34885790944099426, -0.5010911226272583, 0.5657439231872559, -0.539393961429596, -0.12137574702501297, 0.19675292074680328, -0.00802652072161436, 0.2975001931190491, -0.539393961429596, 0.62843918800354, -0.3916303217411041, 0.18576562404632568, -0.20485158264636993, 0.267037034034729, -0.12137574702501297, -0.3916303217411041, 0.452385276556015, -0.048262644559144974, -0.008223661221563816, -0.03398600593209267, 0.14139677584171295, -0.25067612528800964, 0.254544734954834, 0.037492718547582626, -0.008973529562354088, 0.018220363184809685, -0.07171875238418579, 0.16794472932815552, -0.20651035010814667, -0.04847889021039009, -0.01077927928417921, -0.032640136778354645, 0.14557932317256927, -0.26245003938674927, 0.2713641822338104, 0.06652725487947464, 0.05319247022271156, 0.06291453540325165, -0.25523731112480164, 0.36385247111320496, -0.3384372889995575, -0.07695340365171432, -0.07598813623189926, -0.09474346041679382, 0.30378299951553345, -0.35230180621147156, 0.24374563992023468, 0.03537348657846451, 0.021346278488636017, 0.06830676645040512, -0.1844746619462967, 0.1358068287372589, 0.030931826680898666, 0.7347850203514099, -0.7394452691078186, 0.7267791628837585, -0.7031601667404175, 0.620873749256134, 0.681039035320282, -0.7394452691078186, 0.744120180606842, -0.7315704822540283, 0.707787275314331, -0.6187830567359924, -0.6868351697921753, 0.7267791628837585, -0.7315704822540283, 0.7188483476638794, -0.6950653195381165, 0.6093946695327759, 0.6755788922309875, -0.7031601667404175, 0.707787275314331, -0.6950653195381165, 0.6724846363067627, -0.6074605584144592, -0.6505074501037598, 0.620873749256134, -0.6187830567359924, 0.6093946695327759, -0.6074605584144592, 0.729117214679718, 0.4828289747238159, 0.681039035320282, -0.6868351697921753, 0.6755788922309875, -0.6505074501037598, 0.4828289747238159, 0.6618906259536743, -0.6144542694091797, 0.6113898754119873, -0.6355370283126831, 0.680465817451477, 0.10471909493207932, -0.6468662619590759, 0.6112034320831299, -0.6080610752105713, 0.6323471665382385, -0.6783902645111084, -0.11026540398597717, 0.6427090167999268, -0.6350033283233643, 0.6319476962089539, -0.6560971736907959, 0.6977624297142029, 0.10372406244277954, -0.6680675745010376, 0.6791070103645325, -0.6771102547645569, 0.6968262791633606, -0.719843864440918, -0.04093974828720093, 0.7093607783317566, 0.055191002786159515, -0.05996015667915344, 0.060829244554042816, -0.022107789292931557, -0.27149394154548645, 0.18365435302257538, -0.6150633692741394, 0.6110655069351196, -0.6378018856048584, 0.6813754439353943, 0.20000559091567993, -0.6501768231391907, 0.6384611129760742, -0.6391969919204712, 0.6456668376922607, -0.6489598155021667, 0.33104926347732544, 0.6306337118148804, -0.6391969919204712, 0.6399496793746948, -0.6465005874633789, 0.6496942043304443, -0.32501474022865295, -0.6328693628311157, 0.6456668376922607, -0.6465005874633789, 0.6544586420059204, -0.6612088680267334, 0.3591235876083374, 0.6511529684066772, -0.6489598155021667, 0.6496942043304443, -0.6612088680267334, 0.6818524599075317, -0.5467729568481445, -0.648776113986969, 0.33104926347732544, -0.32501474022865295, 0.3591235876083374, -0.5467729568481445, 0.6654849648475647, -0.3286735415458679, 0.6306337118148804, -0.6328693628311157, 0.6511529684066772, -0.648776113986969, -0.3286735415458679, 0.6778094172477722, -0.7160568833351135, 0.7148484587669373, -0.7076755166053772, 0.6858420968055725, -0.5077348947525024, -0.6944605112075806, 0.714962899684906, -0.7137664556503296, 0.7066638469696045, -0.6850423216819763, 0.5084729790687561, 0.6934191584587097, -0.7083236575126648, 0.7071989178657532, -0.7005161046981812, 0.680148720741272, -0.5124217867851257, -0.6866042613983154, 0.6866714954376221, -0.6857782006263733, 0.6804381608963013, -0.6640525460243225, 0.5196983218193054, 0.6560741662979126, -0.4932742118835449, 0.49407872557640076, -0.49854767322540283, 0.5088323950767517, -0.4045564532279968, -0.27957451343536377, -0.7011684775352478, 0.6998843550682068, -0.6919032335281372, 0.6609488129615784, -0.31460514664649963, -0.7040385603904724, 0.7518344521522522, -0.7481274008750916, 0.7339385151863098, -0.7039506435394287, 0.4294917583465576, 0.6791305541992188, -0.7481274008750916, 0.7444435954093933, -0.7303640246391296, 0.7008729577064514, -0.4380110502243042, -0.6749612092971802, 0.7339385151863098, -0.7303640246391296, 0.7167674899101257, -0.6892055869102478, 0.46689558029174805, 0.6593948006629944, -0.7039506435394287, 0.7008729577064514, -0.6892055869102478, 0.6693483591079712, -0.5774473547935486, -0.6087436676025391, 0.4294917583465576, -0.4380110502243042, 0.46689558029174805, -0.5774473547935486, 0.7196873426437378, -0.13066519796848297, 0.6791305541992188, -0.6749612092971802, 0.6593948006629944, -0.6087436676025391, -0.13066519796848297, 0.7358353734016418, -0.5222265720367432, 0.5265371799468994, -0.5397648811340332, 0.5419801473617554, -0.054503243416547775, -0.4296002984046936, 0.5245331525802612, -0.5290428400039673, 0.5429598689079285, -0.5481908321380615, 0.07821379601955414, 0.42659991979599, -0.5311819911003113, 0.5364169478416443, -0.5527148246765137, 0.5666475892066956, -0.15400493144989014, -0.406919002532959, 0.5003301501274109, -0.5096266865730286, 0.5375754237174988, -0.5787508487701416, 0.3431088626384735, 0.11893641203641891, 0.12510079145431519, -0.10297199338674545, 0.021484071388840675, 0.2606513202190399, -0.40999579429626465, 0.43226921558380127, -0.5395337343215942, 0.5406138300895691, -0.5337664484977722, 0.25910621881484985, 0.41061970591545105, -0.5834867358207703, 1.6036686897277832, 1.502673864364624, 1.7244117259979248, -2.4553048610687256, -1.1394548416137695, 1.4398456811904907, 1.400647521018982, 1.624961256980896, -2.344412088394165, -1.0762532949447632, 1.3513644933700562, 1.8428285121917725, -2.570317029953003, -1.219756841659546, 1.5473206043243408, 2.404209613800049, 2.5449271202087402, -2.4750194549560547, 0.6038457155227661, -0.9236606359481812, 1.245307445526123, -0.6042419672012329, 0.6050236821174622, -0.5766971707344055, 0.446077436208725, -0.19675292074680328, -0.18576562404632568, -0.6159472465515137, 0.5651969909667969, -0.34885790944099426, 0.00802652072161436, 0.20485158264636993, -0.5664718747138977, 0.5010911226272583, -0.2975001931190491, -0.267037034034729, -0.5657439231872559, 0.539393961429596, 0.12137574702501297, -0.62843918800354, 0.3916303217411041, -0.452385276556015, 3.244044542312622, -3.3002090454101562, 3.002467155456543, -2.5228378772735596, 2.4083337783813477, -1.3669968843460083, 3.454345703125, -3.1452841758728027, 2.357240676879883, -1.0346972942352295, 